FANN_FLO_2.1
num_layers=3
learning_rate=0.300000
connection_rate=1.000000
network_type=0
learning_momentum=0.000000
training_algorithm=2
train_error_function=1
train_stop_function=0
cascade_output_change_fraction=0.010000
quickprop_decay=-0.000100
quickprop_mu=1.750000
rprop_increase_factor=1.200000
rprop_decrease_factor=0.500000
rprop_delta_min=0.000000
rprop_delta_max=50.000000
rprop_delta_zero=0.500000
cascade_output_stagnation_epochs=12
cascade_candidate_change_fraction=0.010000
cascade_candidate_stagnation_epochs=12
cascade_max_out_epochs=150
cascade_max_cand_epochs=150
cascade_num_candidate_groups=2
bit_fail_limit=3.49999999999999980000e-001
cascade_candidate_limit=1.00000000000000000000e+003
cascade_weight_multiplier=4.00000000000000020000e-001
cascade_activation_functions_count=8
cascade_activation_functions=3 5 7 8 10 11 14 15 
cascade_activation_steepnesses_count=4
cascade_activation_steepnesses=2.50000000000000000000e-001 5.00000000000000000000e-001 7.50000000000000000000e-001 1.00000000000000000000e+000 
layer_sizes=226 76 21 
scale_included=0
neurons (num_inputs, activation_function, activation_steepness)=(0, 0, 0.00000000000000000000e+000) (0, 0, 0.00000000000000000000e+000) (0, 0, 0.00000000000000000000e+000) (0, 0, 0.00000000000000000000e+000) (0, 0, 0.00000000000000000000e+000) (0, 0, 0.00000000000000000000e+000) (0, 0, 0.00000000000000000000e+000) (0, 0, 0.00000000000000000000e+000) (0, 0, 0.00000000000000000000e+000) (0, 0, 0.00000000000000000000e+000) (0, 0, 0.00000000000000000000e+000) (0, 0, 0.00000000000000000000e+000) (0, 0, 0.00000000000000000000e+000) (0, 0, 0.00000000000000000000e+000) (0, 0, 0.00000000000000000000e+000) (0, 0, 0.00000000000000000000e+000) (0, 0, 0.00000000000000000000e+000) (0, 0, 0.00000000000000000000e+000) (0, 0, 0.00000000000000000000e+000) (0, 0, 0.00000000000000000000e+000) (0, 0, 0.00000000000000000000e+000) (0, 0, 0.00000000000000000000e+000) (0, 0, 0.00000000000000000000e+000) (0, 0, 0.00000000000000000000e+000) (0, 0, 0.00000000000000000000e+000) (0, 0, 0.00000000000000000000e+000) (0, 0, 0.00000000000000000000e+000) (0, 0, 0.00000000000000000000e+000) (0, 0, 0.00000000000000000000e+000) (0, 0, 0.00000000000000000000e+000) (0, 0, 0.00000000000000000000e+000) (0, 0, 0.00000000000000000000e+000) (0, 0, 0.00000000000000000000e+000) (0, 0, 0.00000000000000000000e+000) (0, 0, 0.00000000000000000000e+000) (0, 0, 0.00000000000000000000e+000) (0, 0, 0.00000000000000000000e+000) (0, 0, 0.00000000000000000000e+000) (0, 0, 0.00000000000000000000e+000) (0, 0, 0.00000000000000000000e+000) (0, 0, 0.00000000000000000000e+000) (0, 0, 0.00000000000000000000e+000) (0, 0, 0.00000000000000000000e+000) (0, 0, 0.00000000000000000000e+000) (0, 0, 0.00000000000000000000e+000) (0, 0, 0.00000000000000000000e+000) (0, 0, 0.00000000000000000000e+000) (0, 0, 0.00000000000000000000e+000) (0, 0, 0.00000000000000000000e+000) (0, 0, 0.00000000000000000000e+000) (0, 0, 0.00000000000000000000e+000) (0, 0, 0.00000000000000000000e+000) (0, 0, 0.00000000000000000000e+000) (0, 0, 0.00000000000000000000e+000) (0, 0, 0.00000000000000000000e+000) (0, 0, 0.00000000000000000000e+000) (0, 0, 0.00000000000000000000e+000) (0, 0, 0.00000000000000000000e+000) (0, 0, 0.00000000000000000000e+000) (0, 0, 0.00000000000000000000e+000) (0, 0, 0.00000000000000000000e+000) (0, 0, 0.00000000000000000000e+000) (0, 0, 0.00000000000000000000e+000) (0, 0, 0.00000000000000000000e+000) (0, 0, 0.00000000000000000000e+000) (0, 0, 0.00000000000000000000e+000) (0, 0, 0.00000000000000000000e+000) (0, 0, 0.00000000000000000000e+000) (0, 0, 0.00000000000000000000e+000) (0, 0, 0.00000000000000000000e+000) (0, 0, 0.00000000000000000000e+000) (0, 0, 0.00000000000000000000e+000) (0, 0, 0.00000000000000000000e+000) (0, 0, 0.00000000000000000000e+000) (0, 0, 0.00000000000000000000e+000) (0, 0, 0.00000000000000000000e+000) (0, 0, 0.00000000000000000000e+000) (0, 0, 0.00000000000000000000e+000) (0, 0, 0.00000000000000000000e+000) (0, 0, 0.00000000000000000000e+000) (0, 0, 0.00000000000000000000e+000) (0, 0, 0.00000000000000000000e+000) (0, 0, 0.00000000000000000000e+000) (0, 0, 0.00000000000000000000e+000) (0, 0, 0.00000000000000000000e+000) (0, 0, 0.00000000000000000000e+000) (0, 0, 0.00000000000000000000e+000) (0, 0, 0.00000000000000000000e+000) (0, 0, 0.00000000000000000000e+000) (0, 0, 0.00000000000000000000e+000) (0, 0, 0.00000000000000000000e+000) (0, 0, 0.00000000000000000000e+000) (0, 0, 0.00000000000000000000e+000) (0, 0, 0.00000000000000000000e+000) (0, 0, 0.00000000000000000000e+000) (0, 0, 0.00000000000000000000e+000) (0, 0, 0.00000000000000000000e+000) (0, 0, 0.00000000000000000000e+000) (0, 0, 0.00000000000000000000e+000) (0, 0, 0.00000000000000000000e+000) (0, 0, 0.00000000000000000000e+000) (0, 0, 0.00000000000000000000e+000) (0, 0, 0.00000000000000000000e+000) (0, 0, 0.00000000000000000000e+000) (0, 0, 0.00000000000000000000e+000) (0, 0, 0.00000000000000000000e+000) (0, 0, 0.00000000000000000000e+000) (0, 0, 0.00000000000000000000e+000) (0, 0, 0.00000000000000000000e+000) (0, 0, 0.00000000000000000000e+000) (0, 0, 0.00000000000000000000e+000) (0, 0, 0.00000000000000000000e+000) (0, 0, 0.00000000000000000000e+000) (0, 0, 0.00000000000000000000e+000) (0, 0, 0.00000000000000000000e+000) (0, 0, 0.00000000000000000000e+000) (0, 0, 0.00000000000000000000e+000) (0, 0, 0.00000000000000000000e+000) (0, 0, 0.00000000000000000000e+000) (0, 0, 0.00000000000000000000e+000) (0, 0, 0.00000000000000000000e+000) (0, 0, 0.00000000000000000000e+000) (0, 0, 0.00000000000000000000e+000) (0, 0, 0.00000000000000000000e+000) (0, 0, 0.00000000000000000000e+000) (0, 0, 0.00000000000000000000e+000) (0, 0, 0.00000000000000000000e+000) (0, 0, 0.00000000000000000000e+000) (0, 0, 0.00000000000000000000e+000) (0, 0, 0.00000000000000000000e+000) (0, 0, 0.00000000000000000000e+000) (0, 0, 0.00000000000000000000e+000) (0, 0, 0.00000000000000000000e+000) (0, 0, 0.00000000000000000000e+000) (0, 0, 0.00000000000000000000e+000) (0, 0, 0.00000000000000000000e+000) (0, 0, 0.00000000000000000000e+000) (0, 0, 0.00000000000000000000e+000) (0, 0, 0.00000000000000000000e+000) (0, 0, 0.00000000000000000000e+000) (0, 0, 0.00000000000000000000e+000) (0, 0, 0.00000000000000000000e+000) (0, 0, 0.00000000000000000000e+000) (0, 0, 0.00000000000000000000e+000) (0, 0, 0.00000000000000000000e+000) (0, 0, 0.00000000000000000000e+000) (0, 0, 0.00000000000000000000e+000) (0, 0, 0.00000000000000000000e+000) (0, 0, 0.00000000000000000000e+000) (0, 0, 0.00000000000000000000e+000) (0, 0, 0.00000000000000000000e+000) (0, 0, 0.00000000000000000000e+000) (0, 0, 0.00000000000000000000e+000) (0, 0, 0.00000000000000000000e+000) (0, 0, 0.00000000000000000000e+000) (0, 0, 0.00000000000000000000e+000) (0, 0, 0.00000000000000000000e+000) (0, 0, 0.00000000000000000000e+000) (0, 0, 0.00000000000000000000e+000) (0, 0, 0.00000000000000000000e+000) (0, 0, 0.00000000000000000000e+000) (0, 0, 0.00000000000000000000e+000) (0, 0, 0.00000000000000000000e+000) (0, 0, 0.00000000000000000000e+000) (0, 0, 0.00000000000000000000e+000) (0, 0, 0.00000000000000000000e+000) (0, 0, 0.00000000000000000000e+000) (0, 0, 0.00000000000000000000e+000) (0, 0, 0.00000000000000000000e+000) (0, 0, 0.00000000000000000000e+000) (0, 0, 0.00000000000000000000e+000) (0, 0, 0.00000000000000000000e+000) (0, 0, 0.00000000000000000000e+000) (0, 0, 0.00000000000000000000e+000) (0, 0, 0.00000000000000000000e+000) (0, 0, 0.00000000000000000000e+000) (0, 0, 0.00000000000000000000e+000) (0, 0, 0.00000000000000000000e+000) (0, 0, 0.00000000000000000000e+000) (0, 0, 0.00000000000000000000e+000) (0, 0, 0.00000000000000000000e+000) (0, 0, 0.00000000000000000000e+000) (0, 0, 0.00000000000000000000e+000) (0, 0, 0.00000000000000000000e+000) (0, 0, 0.00000000000000000000e+000) (0, 0, 0.00000000000000000000e+000) (0, 0, 0.00000000000000000000e+000) (0, 0, 0.00000000000000000000e+000) (0, 0, 0.00000000000000000000e+000) (0, 0, 0.00000000000000000000e+000) (0, 0, 0.00000000000000000000e+000) (0, 0, 0.00000000000000000000e+000) (0, 0, 0.00000000000000000000e+000) (0, 0, 0.00000000000000000000e+000) (0, 0, 0.00000000000000000000e+000) (0, 0, 0.00000000000000000000e+000) (0, 0, 0.00000000000000000000e+000) (0, 0, 0.00000000000000000000e+000) (0, 0, 0.00000000000000000000e+000) (0, 0, 0.00000000000000000000e+000) (0, 0, 0.00000000000000000000e+000) (0, 0, 0.00000000000000000000e+000) (0, 0, 0.00000000000000000000e+000) (0, 0, 0.00000000000000000000e+000) (0, 0, 0.00000000000000000000e+000) (0, 0, 0.00000000000000000000e+000) (0, 0, 0.00000000000000000000e+000) (0, 0, 0.00000000000000000000e+000) (0, 0, 0.00000000000000000000e+000) (0, 0, 0.00000000000000000000e+000) (0, 0, 0.00000000000000000000e+000) (0, 0, 0.00000000000000000000e+000) (0, 0, 0.00000000000000000000e+000) (0, 0, 0.00000000000000000000e+000) (0, 0, 0.00000000000000000000e+000) (0, 0, 0.00000000000000000000e+000) (0, 0, 0.00000000000000000000e+000) (0, 0, 0.00000000000000000000e+000) (0, 0, 0.00000000000000000000e+000) (0, 0, 0.00000000000000000000e+000) (0, 0, 0.00000000000000000000e+000) (0, 0, 0.00000000000000000000e+000) (0, 0, 0.00000000000000000000e+000) (0, 0, 0.00000000000000000000e+000) (0, 0, 0.00000000000000000000e+000) (0, 0, 0.00000000000000000000e+000) (226, 10, 5.00000000000000000000e-001) (226, 4, 5.00000000000000000000e-001) (226, 4, 5.00000000000000000000e-001) (226, 4, 5.00000000000000000000e-001) (226, 4, 5.00000000000000000000e-001) (226, 4, 5.00000000000000000000e-001) (226, 4, 5.00000000000000000000e-001) (226, 4, 5.00000000000000000000e-001) (226, 4, 5.00000000000000000000e-001) (226, 4, 5.00000000000000000000e-001) (226, 4, 5.00000000000000000000e-001) (226, 4, 5.00000000000000000000e-001) (226, 4, 5.00000000000000000000e-001) (226, 4, 5.00000000000000000000e-001) (226, 4, 5.00000000000000000000e-001) (226, 4, 5.00000000000000000000e-001) (226, 4, 5.00000000000000000000e-001) (226, 4, 5.00000000000000000000e-001) (226, 4, 5.00000000000000000000e-001) (226, 4, 5.00000000000000000000e-001) (226, 4, 5.00000000000000000000e-001) (226, 4, 5.00000000000000000000e-001) (226, 4, 5.00000000000000000000e-001) (226, 4, 5.00000000000000000000e-001) (226, 4, 5.00000000000000000000e-001) (226, 4, 5.00000000000000000000e-001) (226, 4, 5.00000000000000000000e-001) (226, 4, 5.00000000000000000000e-001) (226, 4, 5.00000000000000000000e-001) (226, 4, 5.00000000000000000000e-001) (226, 4, 5.00000000000000000000e-001) (226, 4, 5.00000000000000000000e-001) (226, 4, 5.00000000000000000000e-001) (226, 4, 5.00000000000000000000e-001) (226, 4, 5.00000000000000000000e-001) (226, 4, 5.00000000000000000000e-001) (226, 4, 5.00000000000000000000e-001) (226, 4, 5.00000000000000000000e-001) (226, 4, 5.00000000000000000000e-001) (226, 4, 5.00000000000000000000e-001) (226, 4, 5.00000000000000000000e-001) (226, 4, 5.00000000000000000000e-001) (226, 4, 5.00000000000000000000e-001) (226, 4, 5.00000000000000000000e-001) (226, 4, 5.00000000000000000000e-001) (226, 4, 5.00000000000000000000e-001) (226, 4, 5.00000000000000000000e-001) (226, 4, 5.00000000000000000000e-001) (226, 4, 5.00000000000000000000e-001) (226, 4, 5.00000000000000000000e-001) (226, 4, 5.00000000000000000000e-001) (226, 4, 5.00000000000000000000e-001) (226, 4, 5.00000000000000000000e-001) (226, 4, 5.00000000000000000000e-001) (226, 4, 5.00000000000000000000e-001) (226, 4, 5.00000000000000000000e-001) (226, 4, 5.00000000000000000000e-001) (226, 4, 5.00000000000000000000e-001) (226, 4, 5.00000000000000000000e-001) (226, 4, 5.00000000000000000000e-001) (226, 4, 5.00000000000000000000e-001) (226, 4, 5.00000000000000000000e-001) (226, 4, 5.00000000000000000000e-001) (226, 4, 5.00000000000000000000e-001) (226, 4, 5.00000000000000000000e-001) (226, 4, 5.00000000000000000000e-001) (226, 4, 5.00000000000000000000e-001) (226, 4, 5.00000000000000000000e-001) (226, 4, 5.00000000000000000000e-001) (226, 4, 5.00000000000000000000e-001) (226, 4, 5.00000000000000000000e-001) (226, 4, 5.00000000000000000000e-001) (226, 4, 5.00000000000000000000e-001) (226, 4, 5.00000000000000000000e-001) (226, 4, 5.00000000000000000000e-001) (0, 0, 0.00000000000000000000e+000) (76, 4, 5.00000000000000000000e-001) (76, 4, 5.00000000000000000000e-001) (76, 4, 5.00000000000000000000e-001) (76, 4, 5.00000000000000000000e-001) (76, 4, 5.00000000000000000000e-001) (76, 4, 5.00000000000000000000e-001) (76, 4, 5.00000000000000000000e-001) (76, 4, 5.00000000000000000000e-001) (76, 4, 5.00000000000000000000e-001) (76, 4, 5.00000000000000000000e-001) (76, 4, 5.00000000000000000000e-001) (76, 4, 5.00000000000000000000e-001) (76, 4, 5.00000000000000000000e-001) (76, 4, 5.00000000000000000000e-001) (76, 4, 5.00000000000000000000e-001) (76, 4, 5.00000000000000000000e-001) (76, 4, 5.00000000000000000000e-001) (76, 4, 5.00000000000000000000e-001) (76, 4, 5.00000000000000000000e-001) (76, 4, 5.00000000000000000000e-001) (0, 0, 0.00000000000000000000e+000) 
connections (connected_to_neuron, weight)=(0, 7.90220554829024420000e+002) (1, 7.88315796067223910000e+002) (2, 7.90016983499698200000e+002) (3, 7.84413457892112320000e+002) (4, 7.67951269476174840000e+002) (5, 7.74300693460055980000e+002) (6, 7.84282272922229250000e+002) (7, 8.16746413688134910000e+002) (8, 8.10368667474126140000e+002) (9, 8.03449565769951730000e+002) (10, 8.09827404430165300000e+002) (11, 8.10645383156922090000e+002) (12, 8.11352640388940810000e+002) (13, 8.12480994099170860000e+002) (14, 8.12312811723617640000e+002) (15, 8.02700961856022670000e+002) (16, 8.21084309005905080000e+002) (17, 7.70295925806112220000e+002) (18, 8.11822789509134960000e+002) (19, 8.28667822858353020000e+002) (20, 7.70446836568161870000e+002) (21, 7.78747882688698720000e+002) (22, 8.06901062182793450000e+002) (23, 8.05633109365580250000e+002) (24, 8.07025378279755840000e+002) (25, 8.07977317657300660000e+002) (26, 8.10430175396177900000e+002) (27, 8.11821747311970850000e+002) (28, 8.11986752076114730000e+002) (29, 8.12355035845340690000e+002) (30, 8.25655704398075610000e+002) (31, 7.94554407790424080000e+002) (32, 7.05591533251535110000e+002) (33, 7.41556139102427660000e+002) (34, 7.73541233870279830000e+002) (35, 8.00108341239260200000e+002) (36, 7.88691886349223640000e+002) (37, 7.98002862662454160000e+002) (38, 7.99911161156644310000e+002) (39, 8.13146073557460570000e+002) (40, 8.13971018627116220000e+002) (41, 8.14065159804764560000e+002) (42, 8.13123091964520880000e+002) (43, 8.12372273812192590000e+002) (44, 8.12352081743734170000e+002) (45, 8.05941198262787680000e+002) (46, 7.89450444201937780000e+002) (47, 7.29233195283484630000e+002) (48, 7.63273389161673660000e+002) (49, 7.81543460771672470000e+002) (50, 8.20027483750943820000e+002) (51, 7.83612189353031230000e+002) (52, 7.86839540295642000000e+002) (53, 8.07802614539033130000e+002) (54, 8.18262241676042320000e+002) (55, 8.19894930403718260000e+002) (56, 8.16909353288034250000e+002) (57, 8.16543921333632510000e+002) (58, 8.14770864700510510000e+002) (59, 8.12397345416283770000e+002) (60, 7.76536976304033490000e+002) (61, 8.09031917425083410000e+002) (62, 7.21984776341045740000e+002) (63, 7.45217277625887280000e+002) (64, 7.98353598582367680000e+002) (65, 8.27929750632655780000e+002) (66, 8.23355718255849300000e+002) (67, 7.84808147890753960000e+002) (68, 8.05369333156624750000e+002) (69, 8.18166882373462390000e+002) (70, 8.16584342705211720000e+002) (71, 8.14439489649519830000e+002) (72, 8.15091263545800080000e+002) (73, 8.14858577340688270000e+002) (74, 8.12330292192628240000e+002) (75, 7.75092935155470850000e+002) (76, 7.65505855815023780000e+002) (77, 7.48614240292300680000e+002) (78, 7.89275790836554170000e+002) (79, 8.26196745332524980000e+002) (80, 8.74868754885759470000e+002) (81, 8.10211903379573190000e+002) (82, 7.78156162044199390000e+002) (83, 7.95162075371087210000e+002) (84, 8.05266078366495090000e+002) (85, 8.13350932210291490000e+002) (86, 8.12278984140880430000e+002) (87, 8.13136038113626680000e+002) (88, 8.12437408187268720000e+002) (89, 8.12492541950905320000e+002) (90, 7.81474818319620790000e+002) (91, 7.29277050679013770000e+002) (92, 7.43281625483264410000e+002) (93, 7.63500148358392150000e+002) (94, 8.07920829100561040000e+002) (95, 8.32154632417568680000e+002) (96, 7.77364350996704840000e+002) (97, 7.81667105318547100000e+002) (98, 8.00460943088447830000e+002) (99, 8.07037387679402850000e+002) (100, 8.06166697711172790000e+002) (101, 8.10688898364327310000e+002) (102, 8.12921073685479660000e+002) (103, 8.12439102018832270000e+002) (104, 8.12318964067459430000e+002) (105, 7.73700284230982110000e+002) (106, 7.40649997964984100000e+002) (107, 7.47202867935023850000e+002) (108, 7.64937058971376360000e+002) (109, 7.77818550312535540000e+002) (110, 7.89846153572606340000e+002) (111, 7.78340447965149790000e+002) (112, 8.08482966125953910000e+002) (113, 8.26363938523864930000e+002) (114, 8.13337208966934440000e+002) (115, 8.08726185187165020000e+002) (116, 8.11839302141804180000e+002) (117, 8.12342250011063360000e+002) (118, 8.11898651090197860000e+002) (119, 8.12118899823159150000e+002) (120, 7.95529011251837010000e+002) (121, 7.64913506080463890000e+002) (122, 7.41585841531917590000e+002) (123, 7.54365366746785980000e+002) (124, 7.61078313103954880000e+002) (125, 7.77835966713720840000e+002) (126, 7.77633520590770220000e+002) (127, 8.24898959383977630000e+002) (128, 8.27446298181094220000e+002) (129, 8.18220275665610420000e+002) (130, 8.09681339852308950000e+002) (131, 8.12208740931249280000e+002) (132, 8.12125689824249210000e+002) (133, 8.12161762333298730000e+002) (134, 8.12388309810090850000e+002) (135, 8.01556504976208540000e+002) (136, 7.88814972249685300000e+002) (137, 7.68359227672536460000e+002) (138, 7.94639276177660240000e+002) (139, 7.94361477601221510000e+002) (140, 8.03657448694213490000e+002) (141, 8.10272440940349840000e+002) (142, 8.15940704293656840000e+002) (143, 8.23957729919708640000e+002) (144, 8.22264274518657660000e+002) (145, 8.16161549783779150000e+002) (146, 8.12130997531527330000e+002) (147, 8.12030557269389760000e+002) (148, 8.12112384758210170000e+002) (149, 8.12458972614467710000e+002) (150, 8.04327142994367020000e+002) (151, 8.06635995975909960000e+002) (152, 8.14201348992379740000e+002) (153, 8.17158759674139330000e+002) (154, 8.11338887908573840000e+002) (155, 8.05074088675174950000e+002) (156, 7.98371568667197150000e+002) (157, 8.12509647269524520000e+002) (158, 8.18599000431376570000e+002) (159, 8.21516772332377850000e+002) (160, 8.14871828214943780000e+002) (161, 8.12665947018883000000e+002) (162, 8.12555606351987650000e+002) (163, 8.12346143022942560000e+002) (164, 8.12332495561801810000e+002) (165, 8.04615416084148020000e+002) (166, 8.01113277950948030000e+002) (167, 8.09487818389099290000e+002) (168, 8.15063491964910100000e+002) (169, 8.18210222651944720000e+002) (170, 8.10258070543908160000e+002) (171, 7.98924760567269570000e+002) (172, 8.05708406122881000000e+002) (173, 8.14038398407349180000e+002) (174, 8.16064596024414300000e+002) (175, 8.14396763893974370000e+002) (176, 8.11845925910365510000e+002) (177, 8.11543123033849840000e+002) (178, 8.12497290486132440000e+002) (179, 8.12471759479892630000e+002) (180, 8.08243757772292380000e+002) (181, 8.03851995128669160000e+002) (182, 8.06949641614766050000e+002) (183, 8.05863529945519300000e+002) (184, 8.05692671301806740000e+002) (185, 8.09090598696967390000e+002) (186, 8.09841998690641500000e+002) (187, 8.12476075424744640000e+002) (188, 8.11544274577926900000e+002) (189, 8.14061900447022590000e+002) (190, 8.13722763986223750000e+002) (191, 8.12328724606078710000e+002) (192, 8.12452734821406120000e+002) (193, 8.12492065876679480000e+002) (194, 8.12391663043152220000e+002) (195, 8.10332649222748160000e+002) (196, 8.07296649610331660000e+002) (197, 8.05285011264993730000e+002) (198, 8.11973021949454960000e+002) (199, 8.11986481261811040000e+002) (200, 8.09258195647286020000e+002) (201, 8.08730278872192800000e+002) (202, 8.10467714699336060000e+002) (203, 8.14078835238437250000e+002) (204, 8.14023443501693460000e+002) (205, 8.11712698070087410000e+002) (206, 8.12110033547311330000e+002) (207, 8.12403918902709850000e+002) (208, 8.12436121051627310000e+002) (209, 8.12434790485201230000e+002) (210, 8.10988310127534420000e+002) (211, 8.09700962441057640000e+002) (212, 8.09913141237517270000e+002) (213, 8.12412578713791390000e+002) (214, 8.10930061456015660000e+002) (215, 8.11812795494678200000e+002) (216, 8.13003095663845100000e+002) (217, 8.11747952124079120000e+002) (218, 8.12097692872143740000e+002) (219, 8.12240081592609160000e+002) (220, 8.12197061414975220000e+002) (221, 8.12479712360870510000e+002) (222, 8.12369220415864670000e+002) (223, 8.12417926471278070000e+002) (224, 8.12423132770183770000e+002) (225, 8.12344458452604950000e+002) (0, 1.01333196074895880000e+001) (1, 1.22190088328825880000e+001) (2, 1.06713723288928360000e+001) (3, 7.28252273383237500000e-001) (4, -8.20807051294903370000e+000) (5, -4.53445249053929890000e+000) (6, -2.90161654154634800000e+000) (7, -2.44451453914550850000e+000) (8, -9.10992011610156220000e-002) (9, -4.14727563153439340000e-001) (10, -5.16969440105410700000e-002) (11, 2.28717764077881160000e-001) (12, 1.21381111653425340000e-001) (13, -4.45075892706467970000e-002) (14, -7.04048064534405490000e-002) (15, 8.66631204962437880000e+000) (16, -4.71849392338824280000e+000) (17, -8.00825535297044060000e+000) (18, -5.78029722730257230000e+000) (19, -9.57875109169739150000e+000) (20, -7.76975930443007370000e+000) (21, -2.02109911197996930000e+000) (22, -8.42885852182008580000e+000) (23, -5.14004166591588070000e+000) (24, -1.71206862887202680000e+000) (25, -1.37737425014249260000e+000) (26, -1.35019880701181470000e+000) (27, -3.74324558205100130000e-001) (28, 1.26069624723180260000e-001) (29, -4.68696498527159870000e-002) (30, 6.14959697998681330000e+000) (31, -1.10303738958985440000e+001) (32, -7.18386879476156630000e+000) (33, -2.32568206998704510000e+000) (34, -1.24666878434928010000e+000) (35, 8.76977003702934610000e+000) (36, -3.18538414941072600000e+000) (37, -3.34415509050177610000e+000) (38, -3.07862648827672960000e+000) (39, 1.06713468136966960000e+000) (40, -3.19879211002721930000e-001) (41, -1.45592940030840800000e+000) (42, -7.80594906357063300000e-001) (43, 1.17625406873579110000e-001) (44, 7.55363578307308580000e-002) (45, 2.91621901186473800000e+000) (46, -7.66257058635142040000e+000) (47, -5.49862554900588840000e+000) (48, -1.04924494844436270000e+001) (49, -5.30654949543061690000e+000) (50, 1.10949553108841140000e+000) (51, -7.02326335090968090000e+000) (52, -6.21760639958770960000e-001) (53, -1.01195418266117420000e+000) (54, 4.55965736785072300000e-001) (55, 1.77034700886896460000e-001) (56, -7.11987927202551220000e-001) (57, -4.58307612158608770000e-001) (58, -5.55560502173614370000e-002) (59, 1.54838667013910690000e-002) (60, -8.84082012320318800000e-001) (61, -5.06288560496581040000e+000) (62, -9.42121351121108400000e+000) (63, -2.93629489205469030000e+000) (64, 6.34081879221574860000e+000) (65, -1.17384330373963670000e+001) (66, -1.89510653705098590000e+000) (67, 5.93909230414177980000e+000) (68, 1.91975899075962860000e+000) (69, 6.04953550150831520000e-001) (70, -1.10033537244015640000e-001) (71, 9.11051299212546210000e-002) (72, 5.66440932785867710000e-002) (73, -4.91059525246568470000e-002) (74, -8.80202233242673160000e-003) (75, 1.12546334009467540000e+000) (76, -1.33750647304079940000e+001) (77, 1.34840566270672530000e+002) (78, 7.54441404362406030000e-001) (79, -2.19386320571102770000e+000) (80, 1.28990480386033910000e+000) (81, -5.24081949569793350000e+000) (82, 4.54286250589185950000e+000) (83, 3.34127888688406530000e+000) (84, -2.34573832443626280000e-001) (85, 5.15206683510020300000e-001) (86, 2.63691417864282460000e-001) (87, 1.31794765503571410000e-001) (88, 1.03918228994589840000e-001) (89, 7.68425101939471110000e-002) (90, 2.29072741638030930000e+000) (91, -2.44717366958311230000e+000) (92, -4.21009528973861350000e+000) (93, 2.81922769183478870000e+000) (94, -5.78844442917485220000e+000) (95, -1.30568057885281180000e+001) (96, -7.33093557578793400000e+000) (97, -3.58209800602054650000e-001) (98, 5.61656493555984020000e-001) (99, -2.49269417281893450000e+000) (100, 1.23336506900151410000e+000) (101, -2.02194346522604480000e-001) (102, 1.46090836798565660000e-001) (103, 2.15688059822396460000e-003) (104, 1.59836844757360600000e-003) (105, -4.52114689712426450000e+000) (106, -1.47355790174292610000e+000) (107, 2.96944624070467180000e+000) (108, 3.31519149626514190000e+000) (109, 2.62168166027742840000e+000) (110, -7.13676149099489980000e+000) (111, -3.11316113958890520000e+000) (112, 5.43589885622299370000e-001) (113, -2.09676090430953280000e+000) (114, 2.02592310088450580000e+000) (115, 1.85197348440241800000e-001) (116, 6.91920894083491890000e-001) (117, 1.13432382103591300000e-001) (118, -1.01369611238721680000e-001) (119, 6.59431813431638200000e-002) (120, -6.55425243174262300000e+000) (121, -5.11878921397682780000e+000) (122, 3.50281715416259280000e+000) (123, 4.44700063454200300000e+000) (124, 8.74231422163263080000e+000) (125, 3.05219518964246990000e+000) (126, -1.79132604230960800000e+000) (127, -5.46404360697810070000e-001) (128, -1.60996489837444010000e+000) (129, 1.68266145237544040000e+000) (130, 4.43795954101072640000e-001) (131, 3.93150175812091270000e-001) (132, -4.75732046654357770000e-002) (133, -1.05812982306426950000e-001) (134, 9.50699396609328840000e-002) (135, 1.70999461590572310000e+000) (136, 6.06556396412815690000e+000) (137, -4.66036270950686500000e-001) (138, 3.02986901341239760000e+000) (139, 8.89334199553902320000e+000) (140, -5.45488817459394040000e-001) (141, -6.37161665575758820000e+000) (142, -2.60567897624640570000e+000) (143, -2.38835585858035900000e+000) (144, 7.39334065782487170000e-001) (145, -1.13070492417037640000e+000) (146, -5.42447061761191170000e-001) (147, -1.84081683154204260000e-001) (148, 3.49566606698293800000e-002) (149, 5.37407032090903500000e-002) (150, 5.78160228600352520000e+000) (151, 6.25119595903973120000e+000) (152, 4.91834510853452400000e+000) (153, 1.39719110602860800000e-001) (154, -1.26601815219613250000e+000) (155, 3.34290362066909930000e-001) (156, -2.14981978687683900000e-001) (157, 1.51308247155668570000e+000) (158, -2.70130127943191840000e+000) (159, -1.73801498335518150000e+000) (160, -7.11588039417713980000e-001) (161, -6.92820157168477450000e-001) (162, -5.95988036755493510000e-002) (163, 8.93058892860323220000e-002) (164, -4.02046106909183450000e-002) (165, 1.86533919495643370000e+000) (166, 4.11169132821465770000e+000) (167, 3.66602918148975520000e+000) (168, -3.48932522748296140000e+000) (169, -2.21531934133799260000e+000) (170, 3.42978537371615030000e+000) (171, 5.10244664548473370000e+000) (172, 2.33635267614450150000e+000) (173, -1.07357594512914840000e+000) (174, 2.25557933225251530000e-001) (175, -9.91568586847427770000e-001) (176, -4.88943054127745520000e-001) (177, -3.24227215368452840000e-001) (178, -3.32716873521006480000e-003) (179, -1.51313681298699470000e-002) (180, 1.07932014585670390000e+000) (181, 1.25394461253266700000e+000) (182, -8.27503857469534480000e-001) (183, -2.02180759858440990000e+000) (184, -4.78054492339648750000e-001) (185, 2.11440822973223550000e+000) (186, 2.45966380055228660000e+000) (187, 9.50520055397508500000e-001) (188, -1.82831535664756790000e-003) (189, -5.70545903915906090000e-001) (190, -4.57968789595948780000e-001) (191, -1.17892967903240620000e-001) (192, -5.49201870820509310000e-002) (193, -3.10737511799280620000e-002) (194, 5.74272267015169400000e-002) (195, 1.25754994628442420000e+000) (196, 6.14987874245034430000e-001) (197, 3.55336927772562370000e-001) (198, 8.84798149140116230000e-001) (199, 2.06302013239137860000e+000) (200, 1.89596435824611920000e+000) (201, 3.09895008485114290000e+000) (202, 6.92407681836886610000e-001) (203, -1.82855392692088000000e-001) (204, -5.52296119720041450000e-001) (205, -2.48234492893446540000e-001) (206, 1.01754897083054620000e-003) (207, 7.72453422312018020000e-002) (208, 2.51213180169182310000e-002) (209, 8.08708305664905400000e-002) (210, 4.19800212700439050000e-001) (211, 1.18630158603434510000e+000) (212, 1.25164922606806810000e+000) (213, 2.43844140202260280000e+000) (214, 2.77369212520794100000e+000) (215, 2.21032661236547460000e+000) (216, 9.56777385532393550000e-001) (217, 4.96164281044713500000e-001) (218, 4.25276448371983070000e-003) (219, -5.62491367146929350000e-002) (220, -1.09602666569519340000e-001) (221, -3.70613000972292860000e-002) (222, 3.86406053277673560000e-002) (223, -7.16743377223611890000e-002) (224, -1.37404370609910640000e-003) (225, 4.02079367245559980000e-004) (0, 3.54778739410158490000e-002) (1, 4.62713028838869000000e+000) (2, -2.92049203890432810000e+000) (3, -1.95613604582493800000e-001) (4, -3.05584444017065950000e+000) (5, -8.24503930896728910000e-001) (6, 6.40127293155893120000e-001) (7, -7.28575629820821020000e-001) (8, 3.92148628780933170000e+000) (9, 1.04484231553971750000e+000) (10, 8.42394663066665990000e-001) (11, -3.18845909305337520000e-002) (12, 3.00937893776904410000e-002) (13, 1.56175367858959880000e-001) (14, 1.08659498010992850000e-001) (15, -3.15273652554132690000e+000) (16, -1.25875211115809770000e-001) (17, -1.38367028690927810000e+000) (18, -8.06108845208199360000e-001) (19, -2.15003221150283920000e+000) (20, -2.68520448616512430000e+000) (21, 2.07881842654522590000e+000) (22, 8.79361509538325810000e-001) (23, 2.76079732071267300000e+000) (24, 1.41336870275303460000e+000) (25, -2.89461818480187370000e-001) (26, -7.52125558849998430000e-001) (27, 2.26522356636030040000e-001) (28, 2.34728311584595810000e-001) (29, 1.48259107975448720000e-001) (30, -4.09351165114223380000e+000) (31, -2.42661759613065260000e+000) (32, 9.84624851513707710000e-001) (33, 9.37735552695378890000e-001) (34, -2.65485294235316260000e+000) (35, 2.07835762169655250000e+000) (36, -2.50209132420159320000e+000) (37, 2.35076260091936850000e+000) (38, 1.31019610642861830000e+000) (39, 2.80004868783873740000e+000) (40, 2.31806920103186790000e-001) (41, -8.90461461472649600000e-001) (42, 1.81051892266324910000e-002) (43, 6.05210695588475550000e-002) (44, 1.50499098243169540000e-001) (45, 1.34269114059138330000e-001) (46, -2.83990031783902500000e+000) (47, -4.78522941228478870000e+000) (48, -2.81522717951752500000e+000) (49, -1.57347297856653980000e+000) (50, -9.88441838415093030000e-001) (51, -1.45461915528692450000e+000) (52, 8.40811169016334010000e-001) (53, 6.28143478537761760000e-001) (54, 1.42270016448361320000e+000) (55, 1.55966832027802550000e+000) (56, 4.23042547794755970000e-001) (57, 4.17775325357477860000e-001) (58, 5.87107357552892340000e-002) (59, 1.60478346438650670000e-001) (60, 1.11548055350641520000e+000) (61, 7.07625235271883300000e+000) (62, -5.39894809492320720000e-001) (63, -8.86963358704970560000e-001) (64, 4.87581033246839100000e-001) (65, -1.82850177834768400000e+000) (66, -8.07741831013275010000e-001) (67, 6.51308852017847830000e-002) (68, 6.49865904297889040000e-001) (69, 7.72532191558282090000e-002) (70, 2.33300912411748400000e+000) (71, 1.23064334545433820000e+000) (72, 5.13656750380699360000e-001) (73, 4.47533298524684930000e-002) (74, 6.90720950768998060000e-002) (75, 5.49246289278640010000e+000) (76, -2.19522989709110860000e-001) (77, 3.71692863150641760000e+000) (78, 4.55472259381424300000e+000) (79, 4.05676710054730090000e+000) (80, 1.95404282874977090000e+000) (81, -1.76591211813468090000e+000) (82, 3.22646522304770400000e+000) (83, -2.58732712461054950000e-001) (84, -2.53526550760836410000e+000) (85, 1.05497831876373050000e+000) (86, 1.06659340015100710000e+000) (87, 6.41593632077037460000e-001) (88, 1.29728655422260950000e-001) (89, 1.02934400269408530000e-001) (90, -2.46645848090065330000e+000) (91, -8.92691886026070410000e-001) (92, 1.27013052835316360000e+000) (93, 1.05885235320610920000e+000) (94, 1.82073207496515390000e+000) (95, -2.44853985000316590000e+000) (96, 1.62497712761744580000e+000) (97, -3.18671454020312380000e+000) (98, -2.95082062129166590000e+000) (99, -5.72112399776750210000e-001) (100, 6.43573355047291740000e-001) (101, -2.02691219188881330000e-001) (102, 7.91762024792647010000e-001) (103, 1.91686800730930780000e-001) (104, 1.14842359431248330000e-001) (105, -1.20714786174441760000e+000) (106, -4.01167027649632320000e+000) (107, -1.71924636208880120000e+000) (108, -5.32184805237581160000e-001) (109, -7.85681875772156200000e-001) (110, -1.27687831237055240000e-001) (111, 1.36246842554357710000e-001) (112, -3.24926113600341000000e+000) (113, -2.42852685976792550000e+000) (114, 3.02600511725306200000e+000) (115, 1.07935092100694590000e+000) (116, 1.23932381550382190000e-001) (117, 4.27133419757203200000e-001) (118, -7.45668306773752810000e-002) (119, 7.70347019970037410000e-002) (120, -3.22897394388465480000e+000) (121, -4.63648547037048080000e+000) (122, -1.99313277621014410000e+000) (123, 1.56611840898138510000e+000) (124, -6.95262086689492630000e-001) (125, -2.36420361976413270000e+000) (126, -4.11563761404217960000e-001) (127, -1.14722985715057500000e+000) (128, -1.03395947629126210000e+000) (129, 1.23470113709894490000e+000) (130, 1.84871457364764960000e-001) (131, 7.23498401004368130000e-001) (132, -3.26127022983830060000e-002) (133, -2.07963662071098620000e-001) (134, 3.23182277806114350000e-002) (135, 3.36588138148583520000e-001) (136, -1.72724714057494370000e+000) (137, -4.45168883626682630000e+000) (138, -2.40406283118311630000e+000) (139, -8.97920099650920790000e-001) (140, -1.77979845724996210000e+000) (141, -1.30636969747274370000e+000) (142, 1.02098811636997200000e-001) (143, 4.09157719272030600000e-001) (144, 7.80552009888821230000e-001) (145, -1.01208773610776750000e-001) (146, -6.84258682168216860000e-002) (147, -1.54724466033843680000e-001) (148, 1.74816073193939210000e-001) (149, 1.40721266066535230000e-001) (150, 4.63074654005705910000e-001) (151, 3.46624707560146180000e-001) (152, -1.80777722260771020000e+000) (153, 1.25262949235320580000e-001) (154, 2.24811272321611130000e+000) (155, 9.15690008820602250000e-001) (156, 1.14627778523600090000e-001) (157, 1.32239972948611140000e+000) (158, 2.92656057678784220000e+000) (159, 1.87570075838613030000e+000) (160, -5.70722180346780910000e-001) (161, -6.72936191892932520000e-001) (162, -5.21759664521267080000e-002) (163, 3.12364011538255460000e-002) (164, 1.62309401153422430000e-001) (165, -2.31094000370265650000e-001) (166, -1.77109455306441320000e-001) (167, 6.09259879270754530000e-001) (168, 4.58579969145541280000e-001) (169, 1.38420322920360440000e+000) (170, 1.82811838885214080000e+000) (171, -8.55671219875098750000e-001) (172, 2.12581180483737330000e+000) (173, 7.61042510839762150000e-001) (174, -9.95591208383603090000e-003) (175, -5.91554277369405360000e-001) (176, -3.33240335224076530000e-001) (177, -1.44821256948149760000e-001) (178, 1.95219557893723330000e-001) (179, 1.92790358638784240000e-001) (180, 2.03829404200019520000e-001) (181, -3.88213731510533770000e-002) (182, 4.03734199206213060000e-001) (183, 1.84968854321614500000e+000) (184, 1.26853990167638760000e+000) (185, 1.30112497819059490000e+000) (186, 1.36247485834932250000e+000) (187, 4.33897381293301580000e-001) (188, -1.12508766509716150000e+000) (189, -4.43825108680526160000e-001) (190, -7.81933230222161960000e-002) (191, 2.14502780792108300000e-001) (192, 1.54557936194249680000e-001) (193, 5.76218995937743330000e-002) (194, 1.09379712865475930000e-001) (195, 8.96291165135696820000e-002) (196, 1.98971075579566110000e-001) (197, 2.83667988336518850000e-001) (198, 2.57554621546332850000e-001) (199, 3.02731643129553860000e-001) (200, 1.40519061059319220000e-001) (201, 7.37694428523179900000e-001) (202, -4.82487288210322720000e-001) (203, -5.54459849580651310000e-001) (204, -2.14172694023808540000e-001) (205, -1.95373257576584440000e-001) (206, -1.44538744746806020000e-002) (207, 6.07591066717690710000e-002) (208, 1.08970777312506780000e-001) (209, 3.38609129116895920000e-002) (210, 1.38425675355244550000e-002) (211, -3.50402323577890810000e-002) (212, 2.09369699350571060000e-001) (213, -3.31200996810856070000e-001) (214, -2.28835748451794770000e-001) (215, -3.01355163963800910000e-001) (216, -4.35065040806558890000e-001) (217, 4.33930765383512830000e-001) (218, 1.57454790084631040000e-001) (219, 5.02088526016210570000e-002) (220, 1.35539376046876940000e-002) (221, 1.84080641712201070000e-001) (222, 1.57890455775115790000e-001) (223, 5.36790284412881280000e-002) (224, 1.84855788208122680000e-001) (225, 2.25071853260186360000e-001) (0, 5.37406457134427810000e-001) (1, -1.17605040684856040000e+000) (2, -9.36717393329084880000e-001) (3, -4.45213584458989600000e+000) (4, -2.30079492048155700000e+000) (5, 1.84662065128096220000e+000) (6, 7.83784902219041400000e-001) (7, 1.14325688926085510000e-001) (8, 1.78234804781547800000e-001) (9, 8.60132791749300960000e-002) (10, -7.30026451095641270000e-002) (11, 4.20510363276550350000e-002) (12, 1.29055856812994250000e-001) (13, 3.97529382058751170000e-002) (14, 1.06012704818240470000e-001) (15, 2.04214117425834200000e+000) (16, -1.65005924082905060000e+000) (17, -3.65370935436324370000e+000) (18, -5.07130892442366580000e+000) (19, -1.02482262204843780000e+000) (20, 4.66969746638620810000e+000) (21, 1.61505145181430890000e+000) (22, 3.77741161867667260000e-001) (23, 2.33407483037594640000e+000) (24, -5.62665653440671990000e-001) (25, -1.09242903886119970000e+000) (26, -2.11836667371900660000e-001) (27, 5.37904875960346290000e-002) (28, 3.64831083056499360000e-002) (29, 1.75006846471647990000e-001) (30, -2.63959583457655470000e-001) (31, 2.53881212636799970000e+000) (32, 2.82750726410718860000e-001) (33, -4.90685621831448240000e+000) (34, 1.18715384722561020000e-001) (35, -3.38611339625710040000e+000) (36, -3.03328623492155240000e+000) (37, -2.33542492601699570000e-001) (38, -6.13205304694434260000e+000) (39, -4.44979907955276750000e+000) (40, -2.11121307099579440000e+000) (41, -5.73470930299352810000e-001) (42, 1.68414871781603940000e-001) (43, 1.34790781419317550000e-001) (44, 2.94074790672773580000e-002) (45, 1.95773003382433200000e+000) (46, 3.48792945848521190000e+000) (47, -2.99413222798034790000e+000) (48, -3.44822244478059400000e+000) (49, 3.86321252724157960000e-001) (50, -1.18032225047652980000e+000) (51, 3.71585604258312610000e-001) (52, -7.02988300655771000000e-001) (53, -1.47965609503331600000e+000) (54, -4.82945190082280980000e+000) (55, -1.32149898056728850000e+000) (56, -2.79364770105531400000e-001) (57, 4.17129566909396230000e-001) (58, 2.55873618033684300000e-001) (59, 1.42096689731349950000e-001) (60, -7.69052386595635460000e-001) (61, 2.32075677032421800000e+000) (62, -1.08496778380976510000e+000) (63, -3.04295874859526470000e-001) (64, 4.56407031140621380000e+000) (65, -2.90547723975201460000e-001) (66, -1.52330077152870840000e+000) (67, 1.73260344209742350000e+000) (68, -7.20613102420841090000e-001) (69, -9.59802907525459710000e-001) (70, -8.07524731107003070000e-001) (71, -1.79991168056015880000e-002) (72, 3.59846004790929870000e-001) (73, 1.95729574168911290000e-001) (74, 1.12567880697188300000e-001) (75, 1.13605106612862430000e+000) (76, 3.89501884406844570000e+000) (77, -1.38519990343462450000e+000) (78, -2.64146895054139730000e+000) (79, 2.81400340724951810000e+000) (80, -7.05162003327532760000e-001) (81, -9.97653025864090550000e-001) (82, 1.54038545820105060000e+000) (83, 1.60606768349924740000e-001) (84, -2.20479546000778960000e-001) (85, -1.04572324311637140000e-001) (86, 6.87253081916595290000e-003) (87, 1.66667743342063300000e-001) (88, 1.53894785610293410000e-001) (89, 2.12213878275107290000e-001) (90, 4.73346885079966970000e-001) (91, -8.33477824244728550000e-002) (92, -1.70753654868781520000e-001) (93, -5.15840309019733100000e-001) (94, -7.28988280280070230000e-001) (95, 1.10697947945627840000e+000) (96, 1.00106384020368490000e+000) (97, 1.01229566151496280000e+000) (98, -2.19626710671800000000e+000) (99, -7.68643771895807240000e-001) (100, -9.29753024065115150000e-002) (101, -2.31334906848003380000e-002) (102, 4.54783078168400010000e-002) (103, 4.92141784044747080000e-002) (104, 1.12171152175649390000e-001) (105, 3.87388492945885510000e-001) (106, 1.32118472062510080000e+000) (107, 8.31639476716026450000e-001) (108, 1.15693458495653530000e+000) (109, -2.51740758640560610000e-001) (110, 6.96347915678194430000e-001) (111, -2.07651044234452490000e+000) (112, -1.40930898299287430000e-001) (113, -6.30730357065783400000e-001) (114, -4.09909320317006830000e-001) (115, -8.93379825281489630000e-001) (116, -4.08625782668027500000e-002) (117, 1.32242906254780220000e-001) (118, 9.45997211475961690000e-002) (119, 1.32705761793785600000e-001) (120, 1.38072326603279620000e+000) (121, -8.44700412445565370000e-002) (122, -3.53193262042499180000e-001) (123, 2.01627990055714790000e+000) (124, 1.82487544250862250000e-001) (125, 1.62972920970650280000e+000) (126, 1.22004886602341190000e+000) (127, 1.40279974715380380000e+000) (128, 9.16650992825233210000e-001) (129, 6.73878132972323020000e-001) (130, 2.91054170356109530000e-002) (131, 2.84916204407909370000e-002) (132, 6.48777742997031780000e-002) (133, 1.24815165377522640000e-001) (134, 1.37556195881741370000e-001) (135, 1.00970714718971720000e+000) (136, 1.01403799428637860000e+000) (137, -1.04624431086100130000e+000) (138, -6.84130839995407000000e-002) (139, 4.95617139779123750000e-001) (140, 1.36025274256489490000e+000) (141, 1.14371170143263880000e-001) (142, 7.77396318309569230000e-001) (143, 1.35441899678555930000e+000) (144, 9.34757987040272910000e-001) (145, 5.22212210692605260000e-001) (146, 6.34486443009294020000e-001) (147, 1.39614073940596300000e-001) (148, 2.54335801828698800000e-001) (149, 9.44038179265405810000e-002) (150, 4.49379793489230070000e-001) (151, 2.42124900948471520000e+000) (152, -6.49491095796115410000e-001) (153, 7.79887838946041740000e-001) (154, 9.24520064732599510000e-001) (155, 2.77771954772260190000e-001) (156, 4.42824082152441730000e-001) (157, 1.26512385979008560000e+000) (158, -1.52290771730909440000e-001) (159, 1.64750941159959070000e+000) (160, 1.20315554604733870000e+000) (161, 4.74797199890264640000e-001) (162, 1.47499160329020220000e-001) (163, 1.55188730942080160000e-001) (164, 2.61176840963821160000e-002) (165, 5.11889684451274360000e-001) (166, 1.21060368352440020000e-001) (167, -2.05371104084314560000e+000) (168, -1.12999239603841550000e+000) (169, 3.38412450792103970000e-001) (170, 4.40563407822274100000e-001) (171, -8.37590524241648930000e-001) (172, -3.21432641583718370000e-001) (173, 1.32682448980358350000e+000) (174, 4.19031000579246420000e-001) (175, 9.15682680582285750000e-001) (176, 2.87528034838217820000e-001) (177, 6.13354543504145350000e-002) (178, 4.26399011395242400000e-002) (179, 1.91449717809873190000e-001) (180, -5.92358391413474460000e-001) (181, -3.97939729757623040000e-001) (182, -1.42616505601933970000e+000) (183, -3.09356165287333010000e-001) (184, 7.83349511196212770000e-001) (185, 1.51738124974570710000e+000) (186, -3.32699764067347530000e-001) (187, 6.53485758200076650000e-002) (188, 6.67892202463030160000e-001) (189, 1.01908605002556450000e+000) (190, 3.08564897102005910000e-001) (191, 1.91560308254330600000e-001) (192, 7.77473235376367620000e-002) (193, 1.95014170987842040000e-001) (194, 1.19562509707716410000e-001) (195, 1.55079523432522100000e-001) (196, -8.14934672150667730000e-001) (197, -7.33510199096677030000e-001) (198, 4.71622677848219430000e-001) (199, 2.96936614147995050000e-001) (200, 4.46665477783020460000e-001) (201, 7.62596585861239130000e-001) (202, 8.55463684545146320000e-001) (203, 8.45450452846690960000e-001) (204, 1.86597644041192940000e-001) (205, 1.44771807592463690000e-001) (206, 9.16954646047811460000e-002) (207, 3.00056236074418320000e-002) (208, 1.68531016297060050000e-001) (209, 1.41071299091070500000e-001) (210, 2.82399281476846180000e-001) (211, 1.47163920022962800000e-001) (212, 1.47889753375210630000e-001) (213, 4.17730810378868560000e-001) (214, 5.54845594301290320000e-001) (215, 4.51055503119884740000e-001) (216, 3.69037904888791290000e-001) (217, 4.41685875505406890000e-001) (218, 1.20407633618056400000e-001) (219, 9.54416328430479080000e-002) (220, 1.07008169198289830000e-001) (221, 2.07331065702407890000e-001) (222, 1.80091075062957460000e-001) (223, 2.09973888007386280000e-001) (224, 7.02522062384441930000e-002) (225, 1.56354502443828230000e-001) (0, -2.71113042100516570000e+000) (1, 6.05363697669722980000e-001) (2, 5.51318105119987360000e-001) (3, 2.16877394659519720000e-001) (4, -2.70340674026204080000e+000) (5, -1.84315031536679140000e+000) (6, -1.83415225126982320000e+000) (7, -7.75295454888928150000e-001) (8, -6.56414112569873920000e-001) (9, 5.76796781828462720000e-001) (10, 4.63597693724078830000e-001) (11, 3.07770622482212320000e-001) (12, 4.40198874542658770000e-001) (13, 4.89116913962931780000e-001) (14, 4.62664276849890870000e-001) (15, -2.15537213691459920000e-001) (16, -2.01530702665224700000e+000) (17, 1.03924443248151220000e+000) (18, -8.01106524403777160000e-001) (19, 8.99961058303400560000e-001) (20, -5.30111802373014920000e-001) (21, -2.63965149478331880000e-001) (22, 6.37184514289394630000e-002) (23, -6.40790357223264270000e-001) (24, 2.57145558429420880000e-001) (25, 2.38145851823466980000e-001) (26, 1.79410983567753370000e-001) (27, 5.91969760669147420000e-001) (28, 5.06886598187032300000e-001) (29, 5.13061006116714010000e-001) (30, -1.75165150125438720000e+000) (31, -2.06737279034152310000e+000) (32, -1.50410789473063370000e+000) (33, 1.29606004590684960000e+000) (34, 2.78018005448294400000e+000) (35, -1.84369437149117620000e+000) (36, -3.20292172991226390000e+000) (37, -7.87528020983614190000e-001) (38, 3.77472231898443140000e-001) (39, -2.61539860961302000000e-001) (40, 1.00909403263502790000e+000) (41, 3.39310654452293470000e-001) (42, 5.14607343035115350000e-001) (43, 4.54101044300427970000e-001) (44, 4.22313934451794830000e-001) (45, -2.89455129759902130000e+000) (46, 9.15466765022189600000e-001) (47, -2.41168124064115810000e-001) (48, -6.56508521195222850000e-001) (49, 7.52351151085023600000e-001) (50, 3.69064147345453990000e+000) (51, 1.91999143562445300000e+000) (52, 9.58836973556017600000e-001) (53, 1.57104008251463130000e+000) (54, -6.78897214216254010000e-002) (55, -4.13081694342110560000e-001) (56, 3.31331928221509700000e-001) (57, 5.47246622263067420000e-001) (58, 5.09136139635503640000e-001) (59, 4.00396209515878340000e-001) (60, 2.90736888277386200000e+000) (61, 1.73799180272527680000e+000) (62, 1.23242117547319840000e+000) (63, -9.06231464391666570000e-001) (64, 1.86131856671137140000e+000) (65, 6.20810677024882680000e-001) (66, 3.03356743507375230000e+000) (67, 3.05656361108978200000e+000) (68, 2.02254646162736920000e-001) (69, -1.13075375561036180000e-001) (70, -8.89143984051562060000e-002) (71, 5.96749708668035890000e-001) (72, 3.90842677836949870000e-001) (73, 3.77617582987982040000e-001) (74, 4.03063445883728330000e-001) (75, 1.99820278941227490000e+000) (76, 2.61162268947661550000e+000) (77, -1.78913400966437910000e+000) (78, -2.30090756645753740000e+000) (79, -2.66543638209504150000e+000) (80, 3.12671793850859100000e+000) (81, 7.55887503420146540000e-001) (82, 1.13322907855043860000e+000) (83, -1.65940165008050180000e+000) (84, -4.20193134883500910000e-001) (85, -3.11621617511836810000e-001) (86, 7.04177872187529030000e-001) (87, 4.40672493603562700000e-001) (88, 4.70043427350483270000e-001) (89, 5.55352266512867620000e-001) (90, -5.25366363888864600000e-001) (91, 3.16893642813514740000e-002) (92, 1.86765842014206850000e+000) (93, -4.11387065454294820000e+000) (94, -6.94767996693944220000e+000) (95, -7.05471464228639890000e+000) (96, -7.82872089559100550000e+000) (97, -4.98985609333162030000e+000) (98, -1.86901044277023340000e+000) (99, -7.51566964902215420000e-001) (100, -9.97713930566388190000e-002) (101, 3.01653342806990020000e-001) (102, 5.81798947194140830000e-001) (103, 5.02246435457021190000e-001) (104, 5.28130586419579660000e-001) (105, 1.10252085058283230000e+000) (106, -1.41599976790688410000e+000) (107, 6.55468450901718570000e-001) (108, 2.08038846219056910000e+000) (109, -5.10111623900132210000e+000) (110, -5.24497530531389790000e+000) (111, -4.87361018004792790000e+000) (112, -6.35320658617412980000e+000) (113, -2.19170148336150530000e-001) (114, -7.40375032014770620000e-001) (115, -2.83242121668105470000e-001) (116, 4.30247435316102210000e-001) (117, 5.37637189021932140000e-001) (118, 4.29537994658052090000e-001) (119, 5.28085987042213540000e-001) (120, -7.07183987287937080000e-001) (121, 2.75465186883323470000e+000) (122, 1.03390519898384100000e+000) (123, 2.96565278775152310000e+000) (124, -2.35995070249337590000e+000) (125, -1.58337872221308110000e+000) (126, -2.60925362057676050000e+000) (127, -1.01296315658054900000e-001) (128, -5.66335148909869250000e-001) (129, -2.25606301578049230000e-001) (130, -6.95287765763305640000e-001) (131, 3.12992049504861310000e-001) (132, 5.86575949746134920000e-001) (133, 5.37594295186942350000e-001) (134, 5.40106569939772570000e-001) (135, 1.33987674120548430000e-001) (136, 3.72074019973165230000e+000) (137, -6.96186206723298890000e-001) (138, -2.34306636561565080000e-001) (139, -6.58766956924392580000e-001) (140, -1.02768676506744690000e-001) (141, -9.91933701757581110000e-001) (142, 8.22162481508161070000e-001) (143, -2.40718524474173860000e-001) (144, -3.66253532363890910000e-001) (145, -3.91140662997130020000e-001) (146, 4.65303042510863800000e-001) (147, 5.21534284509553300000e-001) (148, 4.71641484137708070000e-001) (149, 5.27434785627954650000e-001) (150, 3.49401211573161120000e-001) (151, -7.11368172987172810000e-001) (152, -1.06847575692868020000e+000) (153, 1.92935763475517750000e-001) (154, 1.65259344024133470000e+000) (155, 3.27983560151496770000e-001) (156, -1.24939535796522050000e-001) (157, -1.09448826973108430000e+000) (158, -1.19096421569379700000e+000) (159, -1.13124825363467800000e+000) (160, -3.59108099395708810000e-001) (161, 3.66615547084920610000e-001) (162, 4.97355426231354420000e-001) (163, 4.79876191168909170000e-001) (164, 5.84276827490850640000e-001) (165, 1.10198531529259270000e+000) (166, 2.60495624679846300000e+000) (167, 8.30831471697407340000e-001) (168, -1.18801988260851930000e+000) (169, 2.78533371382406700000e+000) (170, 1.70125934760122230000e+000) (171, 4.66662057339474190000e-001) (172, -5.64039800887694340000e-001) (173, -4.67030667677361620000e-001) (174, -4.43542034368295920000e-001) (175, 5.20824108065536040000e-002) (176, 2.36658692040012610000e-001) (177, 3.21661308642253900000e-001) (178, 4.50042206349324180000e-001) (179, 5.63537081088014700000e-001) (180, -6.08053674665823380000e-001) (181, 3.63245249211379850000e-003) (182, 1.91859715647549000000e+000) (183, 1.80179822306219360000e+000) (184, 2.91013670943490420000e+000) (185, 2.13754130435403770000e+000) (186, 1.78056714987189760000e+000) (187, 7.50306619494263800000e-001) (188, 7.56224053858045360000e-001) (189, 3.18945318022943180000e-001) (190, 2.50118368401782810000e-001) (191, 4.73892753754673930000e-001) (192, 4.96532685557841080000e-001) (193, 3.97857146978080830000e-001) (194, 5.10405976780247790000e-001) (195, 2.49719441875220410000e-001) (196, 4.56822694183141030000e-001) (197, -3.09754626413026040000e-001) (198, 8.42951101948617330000e-001) (199, 5.30015442688643310000e-001) (200, -1.92443823321721270000e-001) (201, 1.38847441757001630000e+000) (202, 9.08239567959607140000e-001) (203, 5.22435761615843490000e-001) (204, 3.32515059545604840000e-001) (205, 5.57322759304482270000e-001) (206, 4.65513099429324780000e-001) (207, 4.94842011704516250000e-001) (208, 5.33538301343958520000e-001) (209, 4.45189911355142520000e-001) (210, 6.04297949970490130000e-001) (211, 3.21527212005862540000e-001) (212, 1.30243809700513300000e-001) (213, -5.07009842588675430000e-001) (214, -3.09311545081601520000e-001) (215, 1.26269434221182360000e-001) (216, 6.59024091182499940000e-001) (217, 3.64582713157337030000e-001) (218, 5.24413171850777070000e-001) (219, 4.69549586278323380000e-001) (220, 5.03923684451482940000e-001) (221, 4.93328339806959500000e-001) (222, 4.88781220598551500000e-001) (223, 4.60045868607753870000e-001) (224, 4.85772187350574480000e-001) (225, 4.52800995452931450000e-001) (0, -6.16950800271217070000e-001) (1, -6.71677970496801360000e-002) (2, 6.63755765563659450000e-001) (3, 1.14710588549722740000e+000) (4, 1.93155601664529640000e-001) (5, 7.31875261240159110000e-001) (6, -2.18926908107245830000e-001) (7, -5.46001515970381050000e-001) (8, -1.31103010175495990000e+000) (9, -1.56121680148386840000e-001) (10, 3.57231264459718760000e-001) (11, 1.38089318024437800000e-001) (12, 1.03244062795030510000e-001) (13, 9.56887359149602710000e-002) (14, 7.83974758914558200000e-002) (15, -1.85773678040699510000e+000) (16, -2.78251834953939440000e+000) (17, -1.82105393204091660000e-002) (18, 2.60916875722099150000e-001) (19, 2.70007553032013890000e+000) (20, 7.32586255132857130000e-001) (21, -8.66568891736048950000e-002) (22, 3.11061213364239410000e-002) (23, 8.91510690665363700000e-001) (24, 2.28076923960710820000e+000) (25, 2.44967868964828780000e+000) (26, 8.92482591025008380000e-001) (27, 2.17456362420207770000e-001) (28, 1.33494081877378800000e-001) (29, 5.14321434582367540000e-002) (30, -2.02672596147422990000e+000) (31, -1.43921574656265520000e+000) (32, -1.37871929875221810000e+000) (33, 3.19067965980631700000e-001) (34, -9.84821301041921000000e-001) (35, -8.60497893485487330000e-001) (36, -8.64714719741902280000e-001) (37, 4.93729400681136630000e-001) (38, 1.55463747451464140000e+000) (39, 8.70160397529979650000e-001) (40, 1.43558707726362720000e+000) (41, 7.61607045899829530000e-001) (42, 1.67714413224628270000e-001) (43, 5.45083153790012140000e-002) (44, 1.17667496008146870000e-001) (45, 3.33154058403713090000e-001) (46, 2.45897408427031920000e+000) (47, -1.92929988546895300000e-001) (48, -1.10220696239526970000e+000) (49, -1.86313621547867990000e+000) (50, -1.08612004548787030000e+000) (51, -9.22237881644903390000e-002) (52, -2.31388972161210520000e-001) (53, 2.53702918227635220000e+000) (54, 4.94470430145452940000e-001) (55, -1.58094265349935680000e-002) (56, 5.79413254826312230000e-001) (57, 1.93494888657823940000e-001) (58, 1.42532371176722990000e-002) (59, 6.89858546572763020000e-002) (60, 4.80972063424756690000e+000) (61, 3.95313327245841610000e+000) (62, -6.06663918216103880000e-001) (63, 3.57120417132905930000e-002) (64, -8.95256164354169100000e-001) (65, -9.34995001042635220000e-001) (66, 2.00489907931623020000e-001) (67, -7.49104886134471130000e-001) (68, -6.57620467606236160000e-001) (69, 6.76827128400491530000e-001) (70, 1.36597599187239380000e-001) (71, 3.96231682736229160000e-002) (72, 2.02302560609965780000e-002) (73, 1.63329440663699460000e-002) (74, 3.46840963338549900000e-002) (75, 2.25043197058815410000e+000) (76, -5.12058251676240850000e-002) (77, -2.20307000458695600000e+000) (78, 5.69149479976034600000e-001) (79, -1.97881576143236360000e+000) (80, -1.43423895689528780000e+000) (81, 8.07033513732375310000e-002) (82, 3.20693763294184810000e-001) (83, 6.31725366209468060000e-001) (84, 8.01174037834529670000e-001) (85, -5.98045920621771280000e-002) (86, 1.62548175875286350000e-002) (87, 4.64283106702845230000e-002) (88, 4.10823423324008230000e-002) (89, 1.57889664575933650000e-001) (90, 1.02815542009187820000e-002) (91, -2.45787900038637900000e-001) (92, -2.38729872063884930000e-001) (93, -5.30288492093637710000e-001) (94, -1.17229751263664930000e+000) (95, -1.46774337138053120000e+000) (96, 7.18147474238840840000e-001) (97, 1.29965183501013850000e+000) (98, 1.06370764446197710000e+000) (99, 3.67087357882572520000e-001) (100, 4.08012646455349280000e-002) (101, 1.00204308782370320000e-002) (102, -4.70518699884016760000e-002) (103, 1.21862372833269210000e-001) (104, 1.03067886415543150000e-001) (105, -1.41585720239144800000e+000) (106, -3.71213350114148950000e-002) (107, 3.81714928472577320000e-001) (108, -6.24153093616784500000e-001) (109, -1.25298236268589610000e-002) (110, 3.61605565106939200000e-001) (111, -1.66062363459326210000e-001) (112, 9.67359087794104400000e-001) (113, 8.20004988572966330000e-001) (114, 1.38135807623927800000e-001) (115, 4.28591173928339340000e-002) (116, 2.59744091674764600000e-002) (117, 1.14990023310194480000e-001) (118, -1.96734363735567510000e-003) (119, 1.67218118214635060000e-001) (120, -1.25518143430709570000e+000) (121, -1.95607905160538390000e+000) (122, 1.39661309573623020000e+000) (123, 1.60123652491637070000e-001) (124, 1.68704668179598280000e-001) (125, -1.90327324986866130000e+000) (126, 3.00519687589241360000e-001) (127, 6.77306569959177600000e-001) (128, 1.03625781603848550000e-001) (129, 5.42222324933454010000e-001) (130, 1.67494511151334790000e-001) (131, 2.47025462044687260000e-001) (132, 1.71269145664176360000e-001) (133, 5.34193722741886510000e-002) (134, 7.35077006138230290000e-002) (135, -1.30295383551521020000e+000) (136, -1.52578956438177630000e+000) (137, -8.74280071538884650000e-001) (138, 2.36808218416776430000e-001) (139, 3.40953317698874100000e-001) (140, -1.17353310177188840000e+000) (141, 7.19764286096169840000e-003) (142, -2.91697583076574230000e-001) (143, 5.52854200712496250000e-001) (144, 4.44326198260798830000e-001) (145, 3.34236414193063270000e-001) (146, 2.18127050848125450000e-001) (147, 9.15294614782418140000e-002) (148, 1.30608446980824190000e-001) (149, 5.92690576374116370000e-002) (150, -3.59367319265927130000e-001) (151, -1.43008415822157920000e-001) (152, -5.78845592101557620000e-001) (153, -1.15503184204079970000e+000) (154, -2.60455435063850160000e+000) (155, -1.13151279053187710000e+000) (156, 4.00199096027926140000e-002) (157, 5.98863634810558490000e-001) (158, -2.41999799841694060000e-001) (159, 7.11760988183442690000e-001) (160, 1.80874255305172200000e-001) (161, 2.44030063400614700000e-001) (162, 1.19645035100124720000e-001) (163, 1.59098160687683540000e-001) (164, 1.57492936054398350000e-001) (165, 7.59955295282422450000e-001) (166, -7.15203077531962220000e-001) (167, -1.88791862392025060000e+000) (168, -1.40338541904642630000e+000) (169, -2.30067231951512150000e+000) (170, 2.16744903864368930000e-001) (171, -9.73762744297147710000e-001) (172, 4.65001279978404400000e-001) (173, 7.59441723102919460000e-001) (174, 4.91112061042866420000e-001) (175, 2.72813536313419480000e-001) (176, 1.66078103133230880000e-001) (177, 4.45392374566017240000e-002) (178, 4.27346335631878450000e-002) (179, 5.02541649250963920000e-002) (180, -2.43888840266432180000e-001) (181, -9.67177892656064910000e-001) (182, -1.36377778023592920000e+000) (183, -4.50164807174152470000e-001) (184, -3.39597356299799150000e-001) (185, 1.95752791483496610000e-001) (186, -4.12421391834183530000e-001) (187, -2.24880953869271010000e-001) (188, 4.16947318418656120000e-001) (189, 2.61576602896889940000e-001) (190, 1.28691996199792320000e-001) (191, 1.22295785485490250000e-001) (192, 1.30826675891734050000e-001) (193, 1.53531754354753220000e-001) (194, 1.15842544809077070000e-001) (195, 2.15380853786780760000e-001) (196, -8.70081069094828660000e-002) (197, -2.70008736486879180000e-001) (198, 6.96891648060882080000e-002) (199, -2.15811793367435830000e-001) (200, -2.28444049138168430000e-001) (201, 3.20218559274033140000e-001) (202, 2.96195625385861470000e-001) (203, 2.85393936954568050000e-001) (204, 1.33789684424198110000e-001) (205, 1.15807054415799600000e-001) (206, 1.60912223274301940000e-001) (207, 4.55605613396329670000e-002) (208, 7.13357082079430220000e-002) (209, 1.17124283109426090000e-001) (210, 1.32525458123622370000e-001) (211, 1.08769658398280550000e-001) (212, 1.39140479630164630000e-001) (213, 9.72487459188936670000e-002) (214, 2.41991967281688860000e-002) (215, 1.00341875813641080000e-001) (216, 1.46232637110196070000e-001) (217, 5.65914429981197180000e-002) (218, 3.06050243161394950000e-002) (219, 4.14648288028357380000e-002) (220, 1.55126144890313930000e-001) (221, 1.39756119384082530000e-001) (222, 1.46964371444422400000e-001) (223, 1.34153091956929820000e-001) (224, 2.02553851812221110000e-002) (225, 9.65981597566396430000e-002) (0, 4.19789410258353090000e+002) (1, 4.22015164359595020000e+002) (2, 4.34393971202696150000e+002) (3, 4.21834354050364880000e+002) (4, 4.04096896265802230000e+002) (5, 4.10301317702625230000e+002) (6, 4.10800796528774190000e+002) (7, 4.17079718925112390000e+002) (8, 4.19482220244045440000e+002) (9, 4.20010019878178810000e+002) (10, 4.23115666605698550000e+002) (11, 4.24145532195265280000e+002) (12, 4.24464449056869110000e+002) (13, 4.24812025394293470000e+002) (14, 4.24798823489799870000e+002) (15, 4.23212119829715560000e+002) (16, 4.25377209125362920000e+002) (17, 4.13951961794304680000e+002) (18, 4.13596323592759350000e+002) (19, 4.06194664011343660000e+002) (20, 4.02713162388919100000e+002) (21, 4.12686307595430260000e+002) (22, 4.13863392368504440000e+002) (23, 4.14781251125770100000e+002) (24, 4.18969731090007660000e+002) (25, 4.21553382240719940000e+002) (26, 4.24015262395632360000e+002) (27, 4.24491823218274930000e+002) (28, 4.24823776390722570000e+002) (29, 4.24721827639043450000e+002) (30, 4.28918745824793350000e+002) (31, 4.19466200549958840000e+002) (32, 3.98964178800343690000e+002) (33, 4.05485870128876800000e+002) (34, 3.98012474930693430000e+002) (35, 4.15862169308592340000e+002) (36, 4.12167171863773890000e+002) (37, 4.17555901696902030000e+002) (38, 4.18933907598544520000e+002) (39, 4.21042025348180690000e+002) (40, 4.22885491394162900000e+002) (41, 4.24788577847620790000e+002) (42, 4.24987645867388840000e+002) (43, 4.24812403812267860000e+002) (44, 4.24855079594153610000e+002) (45, 4.21795410560669720000e+002) (46, 4.16100045716746650000e+002) (47, 4.15992079046151050000e+002) (48, 4.10004516967861430000e+002) (49, 4.03351774641903260000e+002) (50, 4.10231657984447570000e+002) (51, 4.08160207391521000000e+002) (52, 4.19129457567283790000e+002) (53, 4.23466230691932200000e+002) (54, 4.25029842096705070000e+002) (55, 4.25339576845201350000e+002) (56, 4.25293811004064140000e+002) (57, 4.25225108485340570000e+002) (58, 4.25128272309200210000e+002) (59, 4.24728913820789610000e+002) (60, 4.09655274443183940000e+002) (61, 4.08697676596133530000e+002) (62, 3.97282686464571730000e+002) (63, 4.10001181976243860000e+002) (64, 4.25812322701943230000e+002) (65, 4.11291239366837770000e+002) (66, 4.13336288691763060000e+002) (67, 4.16110208965870640000e+002) (68, 4.22084838924175930000e+002) (69, 4.24048678261297990000e+002) (70, 4.24724489445451920000e+002) (71, 4.25048012312267700000e+002) (72, 4.25322488191666420000e+002) (73, 4.25134369721400390000e+002) (74, 4.24727790773897880000e+002) (75, 4.11063031969575490000e+002) (76, 4.04583904105627080000e+002) (77, 4.01333333335993420000e+002) (78, 4.24412209197757760000e+002) (79, 4.30854117785072790000e+002) (80, 4.23167026148536310000e+002) (81, 4.13731880368934700000e+002) (82, 4.10530464027871740000e+002) (83, 4.16939385953616470000e+002) (84, 4.22762049636956700000e+002) (85, 4.22962464062414260000e+002) (86, 4.24169269582047600000e+002) (87, 4.24943979303008750000e+002) (88, 4.24841688480672810000e+002) (89, 4.24741853274107370000e+002) (90, 4.20374001626286830000e+002) (91, 3.93704818473586670000e+002) (92, 4.03050675767316140000e+002) (93, 4.14480751331396730000e+002) (94, 4.17067045198258200000e+002) (95, 4.25764955245489260000e+002) (96, 4.14373216657648580000e+002) (97, 4.13989622310307420000e+002) (98, 4.20345929473718910000e+002) (99, 4.22526856178991470000e+002) (100, 4.21915210709537520000e+002) (101, 4.23569524554929440000e+002) (102, 4.25006284445178270000e+002) (103, 4.24744688314169540000e+002) (104, 4.24899635258880040000e+002) (105, 4.20799360884252510000e+002) (106, 4.05416706202181440000e+002) (107, 4.03348810389243280000e+002) (108, 4.08286911332790510000e+002) (109, 4.13012809508605130000e+002) (110, 4.19573955538274160000e+002) (111, 4.15234150013475470000e+002) (112, 4.21834361852219270000e+002) (113, 4.25420228062051880000e+002) (114, 4.24592798301495980000e+002) (115, 4.22639269476180290000e+002) (116, 4.24186208501853680000e+002) (117, 4.24816560008040080000e+002) (118, 4.24562344798295330000e+002) (119, 4.24904439075487910000e+002) (120, 4.23218994661853570000e+002) (121, 4.20861021093842850000e+002) (122, 4.17623673298951760000e+002) (123, 4.14522197269333730000e+002) (124, 4.14521779945054160000e+002) (125, 4.17287037740003310000e+002) (126, 4.17752236688874690000e+002) (127, 4.26690937474496200000e+002) (128, 4.25871148754690350000e+002) (129, 4.23368025982563100000e+002) (130, 4.22442333701393580000e+002) (131, 4.24094523074674440000e+002) (132, 4.24541228701814190000e+002) (133, 4.24564377292197380000e+002) (134, 4.24901601427676380000e+002) (135, 4.23890617226436350000e+002) (136, 4.21520400908022110000e+002) (137, 4.15193640331084740000e+002) (138, 4.17189967632602470000e+002) (139, 4.17611528542585180000e+002) (140, 4.18962442401334270000e+002) (141, 4.21670588906970350000e+002) (142, 4.23439444220018460000e+002) (143, 4.26806130615831310000e+002) (144, 4.24339136477658140000e+002) (145, 4.24070198123515130000e+002) (146, 4.23833562358824960000e+002) (147, 4.24420424716818900000e+002) (148, 4.24656874810502250000e+002) (149, 4.24816920413897610000e+002) (150, 4.24855409590607110000e+002) (151, 4.27046143157765360000e+002) (152, 4.24272711973687250000e+002) (153, 4.23121940765927320000e+002) (154, 4.18380368140787250000e+002) (155, 4.17352494516358950000e+002) (156, 4.19555667933285010000e+002) (157, 4.23399514303230940000e+002) (158, 4.24241593834491650000e+002) (159, 4.24533110655958070000e+002) (160, 4.24594638221069260000e+002) (161, 4.24651767271648680000e+002) (162, 4.24848564770737480000e+002) (163, 4.24872175541673980000e+002) (164, 4.24896565190474970000e+002) (165, 4.22563330917361610000e+002) (166, 4.23187704010625000000e+002) (167, 4.24234971677698700000e+002) (168, 4.24711737974565660000e+002) (169, 4.24093506248918060000e+002) (170, 4.23581468919814260000e+002) (171, 4.23333432411241400000e+002) (172, 4.24603911110185150000e+002) (173, 4.24634563189613000000e+002) (174, 4.24792139088980660000e+002) (175, 4.25070860039212500000e+002) (176, 4.24768219490760710000e+002) (177, 4.24712182847433720000e+002) (178, 4.24825599613245690000e+002) (179, 4.24884541264514550000e+002) (180, 4.22879741009756170000e+002) (181, 4.22483405220389780000e+002) (182, 4.23493010900030410000e+002) (183, 4.23008033411948470000e+002) (184, 4.22751257180336490000e+002) (185, 4.24993432801278170000e+002) (186, 4.25543972960916790000e+002) (187, 4.24528646483013120000e+002) (188, 4.24388673798574980000e+002) (189, 4.25191190738177110000e+002) (190, 4.25060870150606950000e+002) (191, 4.24623242799515200000e+002) (192, 4.24710243166214810000e+002) (193, 4.24903089848775270000e+002) (194, 4.24789656009194400000e+002) (195, 4.24280286395701860000e+002) (196, 4.23639123769357920000e+002) (197, 4.22796826693515870000e+002) (198, 4.24727394028788470000e+002) (199, 4.24884703384726660000e+002) (200, 4.25055530320550470000e+002) (201, 4.25998490246815550000e+002) (202, 4.25680502175252970000e+002) (203, 4.25100060248487350000e+002) (204, 4.24771108438959800000e+002) (205, 4.24598379396394360000e+002) (206, 4.24753937173606400000e+002) (207, 4.24881819096505180000e+002) (208, 4.24801148929287650000e+002) (209, 4.24761097659159700000e+002) (210, 4.24598650528056620000e+002) (211, 4.24153612797611120000e+002) (212, 4.24149791942804370000e+002) (213, 4.24784280970053710000e+002) (214, 4.24954809280569580000e+002) (215, 4.25145784790665230000e+002) (216, 4.25196099848827430000e+002) (217, 4.25280154643943940000e+002) (218, 4.24947097196454990000e+002) (219, 4.24783689201377290000e+002) (220, 4.24637686176699670000e+002) (221, 4.24726985109823430000e+002) (222, 4.24755110110242360000e+002) (223, 4.24822834720626360000e+002) (224, 4.24892958012686850000e+002) (225, 4.24773939456225950000e+002) (0, 9.10349843566646830000e-001) (1, 2.17076953853313090000e+000) (2, -6.75774289979175440000e-001) (3, -2.07950099594636820000e-002) (4, 1.92674280876291700000e+000) (5, 2.30827670456659510000e+000) (6, 9.29793228691774720000e-001) (7, 1.96780184296187580000e+000) (8, 3.65709230930539860000e+000) (9, 1.83674282521252600000e+000) (10, 8.58981005458099410000e-001) (11, 4.25410426519767460000e-001) (12, 3.47367418285581650000e-001) (13, 5.41989990163880720000e-001) (14, 5.67002197567891050000e-001) (15, 3.53812103333590140000e+000) (16, 1.23437107707381920000e+000) (17, 2.11205546844442480000e+000) (18, 8.52500009108494440000e-002) (19, 3.11627835705016090000e+000) (20, 2.04625800421781710000e+000) (21, 2.96887839517250330000e+000) (22, 3.69206993317246070000e+000) (23, 3.90418756316369420000e+000) (24, 1.82609968680956310000e+000) (25, 1.36050801579059620000e+000) (26, 4.50368659832930230000e-001) (27, 5.83884164830520520000e-001) (28, 4.47736580926162970000e-001) (29, 6.08915039989326390000e-001) (30, 1.74000134997512260000e+000) (31, -5.60674850373625080000e-001) (32, 2.58518469160397930000e+000) (33, -7.93308918230145040000e-001) (34, 8.55880075261823410000e-001) (35, 1.70004355231508390000e+000) (36, 1.77297518703064850000e+000) (37, 1.39711025441716590000e+000) (38, 1.03195781824971380000e+000) (39, 8.12755747739291880000e-002) (40, 1.64389022115110950000e+000) (41, 7.10813542621237530000e-001) (42, 7.60136689245580090000e-001) (43, 4.68821043760849270000e-001) (44, 6.18369385833347110000e-001) (45, -1.74310150343274480000e+000) (46, -3.05773776818983210000e+000) (47, -7.12414515544390080000e+000) (48, -3.52097872784895170000e+000) (49, -6.25429684778017300000e-001) (50, 2.11026848938041410000e-001) (51, -9.82975029063892450000e-001) (52, -1.22422267750794880000e+000) (53, 1.90527874547036480000e+000) (54, 1.03961237872870620000e-001) (55, -5.76063849899723920000e-001) (56, 3.59578085167247150000e-001) (57, 5.87971372910069400000e-001) (58, 4.82387181881168360000e-001) (59, 4.63614744855143420000e-001) (60, -4.55753920668909900000e+000) (61, -4.92215509338002820000e+000) (62, -4.47785785656938720000e+000) (63, -2.12088963143392690000e+000) (64, -8.25443642402117210000e-001) (65, -8.98677985354014660000e-001) (66, 7.72706211606424550000e-002) (67, -2.01450019738077210000e+000) (68, 1.56872673866178600000e+000) (69, 1.25055518396581470000e-001) (70, -1.76921990563695180000e-001) (71, 6.24479315356146270000e-002) (72, 4.85116671233606300000e-001) (73, 5.52571509098924270000e-001) (74, 5.51517578196511370000e-001) (75, -3.46793954919236350000e+000) (76, -5.33932915625537770000e+000) (77, 3.25943975669420590000e+000) (78, 2.65438678841071600000e+000) (79, -9.52237668975287940000e-001) (80, -7.46481951771293510000e-001) (81, -3.61561743056317390000e+000) (82, 4.92068262289656940000e-001) (83, 8.57719756344123450000e-001) (84, -6.82600731842540220000e-001) (85, -7.40679901268548880000e-002) (86, 2.39330506517271950000e-001) (87, 5.37207862288608400000e-001) (88, 6.01670166834488260000e-001) (89, 5.19999023039174670000e-001) (90, -2.24620641683481190000e+000) (91, -5.15840688029540400000e+000) (92, 6.91070636939251190000e-001) (93, 2.58726249767166030000e+000) (94, -1.25616749173544970000e+000) (95, -3.87807107478793700000e+000) (96, -3.04591693668620240000e+000) (97, -1.46853615620521310000e+000) (98, -1.57613540113335390000e+000) (99, -3.10027772456068840000e-002) (100, 6.64189447648512620000e-001) (101, 1.09210820358570640000e+000) (102, 6.08291684464087660000e-001) (103, 6.32321163570959470000e-001) (104, 5.59818359570212860000e-001) (105, -1.67057093580494160000e+000) (106, -3.33455758073132460000e+000) (107, -3.47106849926904440000e-001) (108, -6.09123503864728470000e-001) (109, 1.73965505548358660000e+000) (110, -8.77313273787159290000e-001) (111, -3.56964935340714630000e+000) (112, -3.77719924875759580000e+000) (113, -1.39849847590933480000e+000) (114, -4.33300887770847190000e-001) (115, -2.59742260925934330000e-001) (116, 3.57966453477708280000e-001) (117, 5.68334033811911500000e-001) (118, 4.98139560935551670000e-001) (119, 5.06375302510609360000e-001) (120, 2.18467861669349260000e-001) (121, -4.27896172423770520000e+000) (122, -1.35033556944072790000e-001) (123, -2.31532966197951180000e+000) (124, 1.28492876091569630000e+000) (125, -1.68271522630486390000e+000) (126, -1.17433583138596330000e+000) (127, -1.39073770609316120000e+000) (128, -1.17239028884626120000e+000) (129, -3.33150435258991630000e-001) (130, 2.37633387051553620000e-001) (131, 3.38608899547087730000e-001) (132, 5.00575254299878260000e-001) (133, 4.52954944478154260000e-001) (134, 4.83957762736440590000e-001) (135, -2.60670299561707750000e+000) (136, -1.57080643132055010000e+000) (137, -3.43531076916610670000e-001) (138, -1.20958230754160320000e+000) (139, 8.20327413829744830000e-001) (140, 4.69391886797318520000e-001) (141, 3.93059866968852030000e-001) (142, -2.44417590603020510000e+000) (143, -1.33399322119308180000e+000) (144, -5.38184406593708700000e-001) (145, 1.75235133048166930000e-001) (146, 3.68757631137079210000e-001) (147, 7.14555184846151210000e-001) (148, 5.06015897787360780000e-001) (149, 6.05515381735527550000e-001) (150, -8.13974031105105380000e-002) (151, -1.00888628835793880000e+000) (152, 3.48620734882260860000e-001) (153, 1.72949995698292060000e+000) (154, -1.24179466225181460000e+000) (155, 8.61687814458110600000e-001) (156, 4.97241434416188070000e-001) (157, -2.40153764783597890000e+000) (158, -7.94010166322753900000e-001) (159, -2.68145185120931940000e-001) (160, -7.56860491472927800000e-003) (161, 4.70894509554361910000e-001) (162, 6.05092308005125480000e-001) (163, 4.92197508952991410000e-001) (164, 6.18424317474790540000e-001) (165, -8.57673016215788730000e-001) (166, -1.67442791825064500000e+000) (167, -1.72132598029899350000e+000) (168, -2.13844541446062930000e+000) (169, -6.12162232288680270000e-001) (170, 1.73807594317514310000e+000) (171, 2.34383098669305120000e-001) (172, -9.62251194493439770000e-002) (173, 1.67565930339514560000e-001) (174, 1.28188091989235310000e-001) (175, 3.57862078376638030000e-001) (176, 5.27950740439936840000e-001) (177, 5.93616527931196010000e-001) (178, 5.44419189418820500000e-001) (179, 4.88529296007700450000e-001) (180, 1.18679942272329600000e-001) (181, 3.12174987790703570000e-001) (182, 4.25346610808565450000e-001) (183, 1.16148629163481630000e+000) (184, 4.63381556336097340000e-001) (185, 3.87378551953334590000e-001) (186, 5.31258275518587840000e-001) (187, 6.68941625188390180000e-001) (188, 4.40959598262083640000e-001) (189, 4.09497064422381820000e-001) (190, 6.56203264839631210000e-001) (191, 5.46338480700762410000e-001) (192, 5.55588623179056880000e-001) (193, 5.97013184343225150000e-001) (194, 4.72727293819052600000e-001) (195, 2.19579783401555120000e-001) (196, 5.84883161339711740000e-001) (197, 5.06632381124383140000e-001) (198, 4.03676709377279670000e-001) (199, 6.78820675400270970000e-002) (200, -3.48977824809197730000e-003) (201, 4.49716917447081980000e-001) (202, 2.65280737842729370000e-001) (203, 1.98470588629205720000e-001) (204, 3.70017613228527280000e-001) (205, 7.13148494252949790000e-001) (206, 6.55739526370025970000e-001) (207, 5.10819335402379560000e-001) (208, 6.28000733633112710000e-001) (209, 5.63260742434001820000e-001) (210, 4.80713357058988880000e-001) (211, 5.41271442466724430000e-001) (212, 6.28309619453812360000e-001) (213, 1.26130882814136650000e-001) (214, 1.26948364182269350000e-001) (215, 3.85450753551168200000e-001) (216, 5.53079518894428630000e-001) (217, 2.51680195932212030000e-001) (218, 4.47539813889197280000e-001) (219, 4.06274982755045530000e-001) (220, 5.09277529864844760000e-001) (221, 4.64127440175283620000e-001) (222, 5.85050293539952970000e-001) (223, 4.94077391793506180000e-001) (224, 4.80442137684044650000e-001) (225, 4.94590087113643330000e-001) (0, 2.54980703038230590000e+000) (1, 1.71793952882093270000e+000) (2, 1.18792287245415480000e+000) (3, 9.81077038467755510000e-001) (4, -1.63847858223491280000e+000) (5, -2.78755609722506290000e-001) (6, 5.05953041615889720000e-001) (7, -4.50007307160552590000e-001) (8, 1.18681042842827190000e+000) (9, 1.80208941696602980000e+000) (10, -2.14181963560858580000e-001) (11, 1.29176763111714300000e-001) (12, 2.99325724862643190000e-001) (13, 2.72273062598773260000e-001) (14, 1.26307484253083330000e-001) (15, 1.65436529127412470000e+000) (16, 7.88384071540206400000e-001) (17, 1.37613330791683100000e+000) (18, 5.53273573523512470000e-001) (19, 3.18643809303405410000e+000) (20, 3.41122631094675640000e-002) (21, -4.12087934367399930000e-001) (22, 4.68384908763662790000e-001) (23, 8.14109299959692720000e-001) (24, 1.74623867806634840000e+000) (25, 1.36561882426756070000e-001) (26, -2.11273476168418540000e-001) (27, -3.57218436467346690000e-001) (28, 2.21534013367491340000e-001) (29, 2.07148549909524170000e-001) (30, -5.11480194170428450000e-001) (31, -8.48678907118304850000e-001) (32, 6.06629276570288420000e-001) (33, -1.79400049986166610000e+000) (34, 4.30651562501455590000e-001) (35, -2.41973000190236840000e+000) (36, -1.18859136140636760000e-001) (37, 1.27373707729514730000e+000) (38, -8.81251318947351980000e-001) (39, -1.08253193468404960000e+000) (40, 2.13420038985595780000e-001) (41, -2.46806561154038480000e-001) (42, -5.04244890543954050000e-001) (43, 2.59480093658040920000e-001) (44, 2.36536978081785340000e-001) (45, 1.65384315401169300000e-001) (46, -1.38589764044063360000e+000) (47, 1.05691637988603220000e+000) (48, -2.70388238375322220000e+000) (49, 2.03877682391812920000e+000) (50, 2.32704291496656300000e+000) (51, 1.72202973498623440000e+000) (52, 1.19498942711643410000e+000) (53, -8.32485098670121330000e-001) (54, -8.12630983788506960000e-001) (55, 1.88522976010897990000e-001) (56, -2.19860729280729140000e-001) (57, -3.25914332945055620000e-001) (58, -2.26816570497189120000e-001) (59, 2.59168814356527280000e-001) (60, -3.43279184879174840000e+000) (61, -3.31357738110145170000e+000) (62, -1.25882906145327620000e+000) (63, -2.66571269253280100000e+000) (64, 2.12089197963665970000e+000) (65, 1.21951938882721110000e-001) (66, 1.47531509156556580000e-001) (67, 1.37759853452656620000e+000) (68, 2.63507965205764580000e-001) (69, -7.10793543811198860000e-001) (70, -8.22660196161705380000e-001) (71, 4.68808817040370420000e-001) (72, -2.91040761421693940000e-001) (73, -7.84034823480166950000e-002) (74, 1.59882924206175560000e-001) (75, -1.63479292439022190000e+000) (76, -2.47977992437530630000e+000) (77, -4.86342576604876250000e+000) (78, -1.89684995648505030000e+000) (79, 2.05536468333113880000e+000) (80, 6.02870764015966070000e-001) (81, 1.82962027171944850000e+000) (82, 1.32007168517631300000e+000) (83, -1.68212790385319440000e-001) (84, -2.92423731128646260000e+000) (85, -1.06892329434387910000e+000) (86, -2.44281248099889100000e-001) (87, -2.41813785667228720000e-001) (88, 2.52435761069002340000e-001) (89, 1.09498401971228040000e-001) (90, 1.69856385655179600000e+000) (91, 9.16731641226229850000e-001) (92, -2.04146210049028780000e+000) (93, 2.15766831384235910000e-002) (94, 1.06679258422730540000e+000) (95, 1.22494006561774360000e+000) (96, -1.49860267170332520000e+000) (97, 2.84001317030527070000e+000) (98, 1.57162648616257530000e+000) (99, 1.11442923099472570000e-001) (100, -2.14585773136743230000e+000) (101, -9.02130100547262280000e-001) (102, -1.35626706091322350000e-001) (103, 1.27939844074474280000e-001) (104, 1.14246937198239680000e-001) (105, 9.29885934897884960000e-001) (106, 9.84888156485357660000e-001) (107, 4.75339539588690240000e-001) (108, -5.14886692261264820000e-001) (109, 1.12420022567809610000e+000) (110, 1.54347860837098510000e+000) (111, -2.85178189003363890000e-001) (112, -5.26346332588768060000e-001) (113, 2.88072789416811640000e-001) (114, 1.19565269725134790000e+000) (115, -2.84110451286795020000e-001) (116, 1.49748651455878460000e-001) (117, -6.58229833684653020000e-002) (118, 2.00713022151869510000e-001) (119, 2.15828557915285820000e-001) (120, -5.17140101633954960000e-001) (121, -1.04085078340809100000e-001) (122, -1.29687374271828150000e+000) (123, -1.48470655891143120000e+000) (124, 8.20341357596774680000e-002) (125, 2.43365245483366240000e-001) (126, 1.79428736050576720000e+000) (127, 7.95016647068310320000e-001) (128, -9.88130376387138960000e-001) (129, -4.19424833179203040000e-001) (130, -5.19536705057595530000e-001) (131, 2.21075516170025740000e-001) (132, 1.66532485443822570000e-001) (133, 3.79489750808543080000e-001) (134, 2.07274743426615450000e-001) (135, 7.32230185591303820000e-001) (136, -9.04786054185217510000e-001) (137, -2.47060785841053580000e+000) (138, -1.49508771499827290000e+000) (139, -1.80371451716754870000e-001) (140, 1.30116569710043060000e+000) (141, 1.09272461954337420000e+000) (142, -7.08959930968577230000e-001) (143, 2.09685736648360520000e-001) (144, -1.26347380264736890000e+000) (145, -5.19852981754703400000e-001) (146, 3.54158180802454590000e-001) (147, 2.96188018242235450000e-001) (148, 1.56169398747988660000e-001) (149, 1.85285756615343410000e-001) (150, 1.32573901210858520000e+000) (151, -9.28641151840583600000e-001) (152, 4.97619429601611480000e-001) (153, -6.34432321466095410000e-001) (154, 1.71310040107984050000e+000) (155, -6.52439639337159400000e-003) (156, -3.46610374675166140000e-001) (157, 1.07606253165138390000e+000) (158, 7.99283781676220610000e-001) (159, 3.94343406029835990000e-002) (160, -1.81654932905866230000e-001) (161, 1.31662558773166600000e-001) (162, 1.39590980552292960000e-001) (163, 1.65406605928855980000e-001) (164, 1.34181019526745490000e-001) (165, 1.57125734216860160000e+000) (166, -8.13636171495801810000e-001) (167, -5.14137427101286400000e-001) (168, -1.77334903066738430000e+000) (169, -1.61605795447520630000e+000) (170, 4.07536854896416500000e-001) (171, -5.77140689536903560000e-001) (172, 1.11297463492185230000e+000) (173, 3.52392438281385450000e-001) (174, -2.15684117576634860000e-001) (175, 6.50398175827692770000e-002) (176, 2.77408781211525460000e-001) (177, 2.88814682112110810000e-001) (178, 2.18012807883883190000e-001) (179, 1.08967396103937080000e-001) (180, -2.73859996860353340000e-001) (181, -1.54696110552561490000e+000) (182, -8.45067669874091100000e-001) (183, -1.23457855218726810000e+000) (184, 2.25120902656372360000e-002) (185, -4.90537059388485020000e-001) (186, -5.15788892793563770000e-001) (187, -3.49200204426011410000e-001) (188, -3.54601871946357890000e-001) (189, -2.66692994175995010000e-001) (190, 2.07995045643323630000e-001) (191, 1.32955157175852160000e-001) (192, 2.61720083925807370000e-001) (193, 1.47205922064461400000e-001) (194, 2.47102163786091090000e-001) (195, 2.51673950901431240000e-001) (196, -5.83266039133642150000e-002) (197, -4.27812319511683280000e-002) (198, 1.62125407930412000000e-001) (199, 2.37730655038753490000e-001) (200, 3.42215845626539510000e-001) (201, -1.16105343678242670000e-001) (202, -1.64406243812209810000e-001) (203, -3.98484071985259270000e-002) (204, 2.73752813227396950000e-003) (205, 2.22662058950733570000e-001) (206, 1.87361873183913980000e-001) (207, 1.40827748141409800000e-001) (208, 2.15815542226142740000e-001) (209, 2.22816274752334560000e-001) (210, 2.90115295761787740000e-001) (211, 3.58292085792525250000e-001) (212, 1.11595340437980460000e-001) (213, 8.75456012378073370000e-003) (214, 1.40112427509291560000e-001) (215, 9.90886280247809110000e-002) (216, 2.48085395825213830000e-001) (217, 2.52709345809946420000e-001) (218, 1.80508615047343030000e-001) (219, 1.08125998891998560000e-001) (220, 1.62061699368321250000e-002) (221, 9.25184212491332730000e-002) (222, 2.17048452400763510000e-001) (223, 2.51527212680155820000e-001) (224, 1.45655629072645230000e-001) (225, 1.05256458548580660000e-001) (0, 7.95162543815564960000e+002) (1, 8.10202058908143840000e+002) (2, 8.54757687484988760000e+002) (3, 8.48567684780244350000e+002) (4, 8.03607012378505260000e+002) (5, 7.87987847257219190000e+002) (6, 8.02704133746112690000e+002) (7, 8.20700707271445940000e+002) (8, 8.11688285113348460000e+002) (9, 8.06854221612470270000e+002) (10, 8.14904042896148780000e+002) (11, 8.15281586614237880000e+002) (12, 8.16134338814089570000e+002) (13, 8.16896030431771810000e+002) (14, 8.16993552405881250000e+002) (15, 8.24568825524108210000e+002) (16, 8.63060769228043000000e+002) (17, 7.82648314845229150000e+002) (18, 8.13302260637577090000e+002) (19, 8.12692621100523870000e+002) (20, 7.65358733712863000000e+002) (21, 7.83071239207995970000e+002) (22, 8.07112439114772880000e+002) (23, 8.14338252726474820000e+002) (24, 8.10004120558979250000e+002) (25, 8.14182380347504140000e+002) (26, 8.13608765247957080000e+002) (27, 8.17006777955997560000e+002) (28, 8.16857494697406080000e+002) (29, 8.16965323645694980000e+002) (30, 8.54507441516083650000e+002) (31, 8.09236347014837860000e+002) (32, 7.29026538208391910000e+002) (33, 7.63979982639577090000e+002) (34, 7.60401785790238360000e+002) (35, 7.91233842167519470000e+002) (36, 7.79566307434193050000e+002) (37, 7.96576489421436350000e+002) (38, 8.14217998766997770000e+002) (39, 8.10609148981930160000e+002) (40, 8.14330476147882790000e+002) (41, 8.19061219458113100000e+002) (42, 8.17376993180246810000e+002) (43, 8.16847837071678330000e+002) (44, 8.16972422034472740000e+002) (45, 8.22463977610658960000e+002) (46, 7.94882977374469530000e+002) (47, 7.93187337161378990000e+002) (48, 7.87064504146360490000e+002) (49, 7.83120096544052670000e+002) (50, 7.94864857992485780000e+002) (51, 7.88219625933855810000e+002) (52, 8.00520888848475920000e+002) (53, 8.15723195425546920000e+002) (54, 8.17935494039794780000e+002) (55, 8.21163485571507860000e+002) (56, 8.20862575765228710000e+002) (57, 8.17756511116705610000e+002) (58, 8.17509847718210840000e+002) (59, 8.16912564855846310000e+002) (60, 7.97997964324392570000e+002) (61, 7.91142345849351050000e+002) (62, 7.40049496242740590000e+002) (63, 7.70659016462903650000e+002) (64, 8.45753023793459990000e+002) (65, 8.06274293476846540000e+002) (66, 8.12536665594143190000e+002) (67, 7.92701897941941980000e+002) (68, 8.12501993177113380000e+002) (69, 8.16263276870016740000e+002) (70, 8.21357153882471830000e+002) (71, 8.19949455051940390000e+002) (72, 8.17796400527664100000e+002) (73, 8.17556283651901480000e+002) (74, 8.16922360998570410000e+002) (75, 8.12719415924104850000e+002) (76, 7.81005355092317700000e+002) (77, 7.42630888622032440000e+002) (78, 7.80654176731232950000e+002) (79, 8.60283270745087410000e+002) (80, 8.72577121417192870000e+002) (81, 8.17175795050756850000e+002) (82, 7.85867382751900660000e+002) (83, 7.93174136446727520000e+002) (84, 8.04867297585862840000e+002) (85, 8.15513587575352740000e+002) (86, 8.14389400011288220000e+002) (87, 8.17257948852537310000e+002) (88, 8.16946829008899270000e+002) (89, 8.16902378088116390000e+002) (90, 8.24863550288278930000e+002) (91, 7.77949219886316650000e+002) (92, 7.77119553767232670000e+002) (93, 7.78615202630045810000e+002) (94, 8.33642427395807200000e+002) (95, 8.57731952145915440000e+002) (96, 8.05362084477137390000e+002) (97, 7.88597808089970270000e+002) (98, 8.02222134770548680000e+002) (99, 8.09658118255352290000e+002) (100, 8.08123009859620310000e+002) (101, 8.13605125841998530000e+002) (102, 8.17173308983567040000e+002) (103, 8.16851679004392390000e+002) (104, 8.16841709141899630000e+002) (105, 7.98603102382844440000e+002) (106, 7.74094114424306670000e+002) (107, 7.71135692918378710000e+002) (108, 7.75854361664157410000e+002) (109, 7.78665937957079900000e+002) (110, 8.00497040574062230000e+002) (111, 7.99709727335214780000e+002) (112, 8.12967353318101230000e+002) (113, 8.22037360890917170000e+002) (114, 8.15109151372746280000e+002) (115, 8.11739581208839580000e+002) (116, 8.14127893335643310000e+002) (117, 8.16580908949632090000e+002) (118, 8.16506306363747060000e+002) (119, 8.16919518651569660000e+002) (120, 8.00621411160813520000e+002) (121, 7.91404971952748500000e+002) (122, 7.68646337522953220000e+002) (123, 7.79727850363312430000e+002) (124, 7.76231920903972310000e+002) (125, 7.90363792827022280000e+002) (126, 8.00439897871671520000e+002) (127, 8.30076992897751210000e+002) (128, 8.20709878247863800000e+002) (129, 8.19071604143181160000e+002) (130, 8.12764039258108480000e+002) (131, 8.14614369460255490000e+002) (132, 8.16364956616978020000e+002) (133, 8.16492798277592330000e+002) (134, 8.16849404702728290000e+002) (135, 8.03409370748982500000e+002) (136, 7.94206937772066000000e+002) (137, 7.71555754786810440000e+002) (138, 7.93527524342413470000e+002) (139, 7.99936134188548980000e+002) (140, 8.17300371722666340000e+002) (141, 8.12419426343671380000e+002) (142, 8.12662302041305220000e+002) (143, 8.22358937036707630000e+002) (144, 8.20823592098715150000e+002) (145, 8.17333122983493010000e+002) (146, 8.15343258108684150000e+002) (147, 8.16582642067815410000e+002) (148, 8.16767468506581050000e+002) (149, 8.16900955968954690000e+002) (150, 8.06694718948029840000e+002) (151, 8.00107536547694050000e+002) (152, 8.10893901631423320000e+002) (153, 8.14122057532857070000e+002) (154, 8.10129404063877700000e+002) (155, 8.09965137038692320000e+002) (156, 8.01891601915954310000e+002) (157, 8.12535477808403810000e+002) (158, 8.18623375764099360000e+002) (159, 8.19763732724876830000e+002) (160, 8.17474057924223420000e+002) (161, 8.16628040568718570000e+002) (162, 8.16983479054029890000e+002) (163, 8.16965976721876590000e+002) (164, 8.16947556311445850000e+002) (165, 8.05196948883067080000e+002) (166, 8.00768962805769890000e+002) (167, 8.11865666101354580000e+002) (168, 8.20453081833405120000e+002) (169, 8.18715696261246530000e+002) (170, 8.14265133061560160000e+002) (171, 8.08928317536598570000e+002) (172, 8.12533089532419350000e+002) (173, 8.18998001098090870000e+002) (174, 8.18289770708282160000e+002) (175, 8.18406554837382490000e+002) (176, 8.16509759070198580000e+002) (177, 8.16287836841317020000e+002) (178, 8.16854868321783210000e+002) (179, 8.16920749670421290000e+002) (180, 8.09685061488355470000e+002) (181, 8.06202669350449360000e+002) (182, 8.10144273306840090000e+002) (183, 8.09977410189371430000e+002) (184, 8.09836090604130960000e+002) (185, 8.12987481209605560000e+002) (186, 8.13515773407359010000e+002) (187, 8.16828057003775370000e+002) (188, 8.17651134544434630000e+002) (189, 8.18584653033208720000e+002) (190, 8.17257833738985250000e+002) (191, 8.16740740546707460000e+002) (192, 8.16996738441084970000e+002) (193, 8.17001554114984860000e+002) (194, 8.16868662267301260000e+002) (195, 8.14263184567714920000e+002) (196, 8.11654752139965130000e+002) (197, 8.08900172585347040000e+002) (198, 8.12639217202819050000e+002) (199, 8.14248994270495810000e+002) (200, 8.15178850916902210000e+002) (201, 8.13771887196664120000e+002) (202, 8.15704148368917570000e+002) (203, 8.17921670086769380000e+002) (204, 8.17003766621584300000e+002) (205, 8.16524655802739400000e+002) (206, 8.16635842014179270000e+002) (207, 8.16971079261015120000e+002) (208, 8.16967929846905800000e+002) (209, 8.16932718664740260000e+002) (210, 8.15388985495480940000e+002) (211, 8.13985686238354560000e+002) (212, 8.14296776941082270000e+002) (213, 8.14364516174121260000e+002) (214, 8.13640226062246600000e+002) (215, 8.14416286312219880000e+002) (216, 8.15472474287869430000e+002) (217, 8.16086213146544200000e+002) (218, 8.16812232935194060000e+002) (219, 8.16833047661531960000e+002) (220, 8.16690923257141660000e+002) (221, 8.16975363929047720000e+002) (222, 8.16964768225764830000e+002) (223, 8.16850431065857720000e+002) (224, 8.16990311439036080000e+002) (225, 8.17004550941201270000e+002) (0, 2.14230815982329000000e+000) (1, 9.62405334202649950000e-001) (2, -1.01383246620514920000e+000) (3, -2.21787427933778680000e+000) (4, -3.20548532718293670000e+000) (5, -1.37924109536243170000e+000) (6, 5.22888585088554740000e-001) (7, -1.67749074616032000000e-001) (8, 3.16738174632390960000e-001) (9, 1.95474290285428980000e+000) (10, -1.03729589191356090000e-001) (11, 1.08875404557097410000e+000) (12, 5.58504533259029160000e-001) (13, 1.56210145707014940000e-001) (14, 1.72189149851402630000e-001) (15, -1.07988489166725740000e+000) (16, -1.66542690938374700000e+000) (17, -7.37093662566476680000e-001) (18, -1.62959213571921620000e+000) (19, -3.14303173990064580000e+000) (20, -5.80838997180675780000e+000) (21, -1.34734391896922780000e+000) (22, -9.86681623868077560000e-001) (23, -1.21539227569611200000e+000) (24, -6.24883021794604530000e-001) (25, -3.14125558716868590000e-001) (26, 1.23517295581161910000e+000) (27, 3.18655447494796480000e-002) (28, 1.43342785776581300000e-001) (29, 6.21732790719215010000e-002) (30, -1.25661636388324560000e-001) (31, 6.88966425735429020000e-002) (32, -2.22559446720468100000e-001) (33, 3.77742108888033280000e+000) (34, 3.01835794933835440000e-001) (35, 1.90606622671504680000e+000) (36, -2.08225749874925260000e-001) (37, -1.32823197915096420000e+000) (38, -8.57064854266063050000e-001) (39, 6.18599562127615580000e-001) (40, -4.41872727494649680000e-001) (41, -1.50795166722595460000e-001) (42, 1.16306934559079880000e-002) (43, 1.57082948454398660000e-001) (44, 6.36442263594945430000e-002) (45, 8.95770617668650180000e-001) (46, -2.08907353959872390000e+000) (47, 6.58073640500125730000e-001) (48, 2.13429368227194030000e+000) (49, 3.44292811557941870000e+000) (50, -3.51049006112308660000e-001) (51, 1.04315005630632160000e-001) (52, -7.38075615681663470000e-001) (53, -6.12824606252001080000e-001) (54, -1.22447937551241750000e+000) (55, 2.03834307685615450000e-001) (56, -6.27350917712823030000e-001) (57, -6.64170177940036770000e-002) (58, 9.97830912693939560000e-002) (59, 2.34652529688061190000e-001) (60, 1.59517851513228390000e+000) (61, 1.10083774260815840000e-001) (62, 8.43324250557333090000e-002) (63, -2.79166118132037600000e+000) (64, 7.85341926204894510000e-001) (65, -1.47806824695051040000e+000) (66, 1.53697195711723380000e+000) (67, 2.15989303022945340000e+000) (68, 9.25423605784027830000e-001) (69, -4.22849681279118190000e-002) (70, 1.33058079419576920000e+000) (71, -2.80678031618896040000e-001) (72, -1.87909784321185800000e-001) (73, 8.44205422124498640000e-002) (74, 7.40629276868194210000e-002) (75, 6.59165236456908170000e-001) (76, 2.04652385285726060000e-002) (77, -7.10840471836170160000e-001) (78, 1.91767847243748450000e+000) (79, 1.16784352243464660000e+000) (80, 2.54486338810755890000e+000) (81, -2.28151217600052100000e+000) (82, -4.53620386980156280000e-001) (83, -4.05548640662491850000e-001) (84, -6.70360841889106160000e-001) (85, -1.12373619155186540000e-001) (86, -7.76063156857345620000e-002) (87, -5.94070866807564380000e-001) (88, 1.41183688820120000000e-001) (89, 1.00948914415412080000e-001) (90, -7.82350243964630730000e+000) (91, -5.36737267084438140000e+000) (92, 6.06302456907131390000e-002) (93, -1.78204338569831290000e+000) (94, -9.66750970799514440000e-001) (95, -1.55012685085336010000e+000) (96, 3.00180468049709490000e-001) (97, -1.16980669567548470000e+000) (98, -2.47227415295119000000e+000) (99, -2.51669837182987790000e+000) (100, -7.45338848953998490000e-001) (101, 2.78286516372838010000e-003) (102, -5.05325996049564410000e-001) (103, 1.78643237756165700000e-001) (104, 2.04928408151606210000e-001) (105, -2.93443514309274930000e+000) (106, -6.56276109302964720000e+000) (107, -5.78176425422763000000e+000) (108, 1.58221951988642170000e+000) (109, 2.36665878795132430000e+000) (110, 1.33960987122291560000e+000) (111, 8.25058337071417350000e-003) (112, -4.13239389949513040000e-001) (113, -1.55544350585675840000e+000) (114, -2.23613769022971760000e+000) (115, -7.78180093058598250000e-001) (116, -4.21164170359071550000e-001) (117, -4.84709962101465830000e-001) (118, 1.77787183856838840000e-001) (119, 2.55252806930241990000e-001) (120, 6.00604577712501090000e-001) (121, 1.56216016201503980000e+000) (122, -1.66120030578615040000e+000) (123, -2.05533955766683450000e+000) (124, 2.28973058237922410000e-001) (125, 2.30985894665286960000e+000) (126, 5.35024615128337210000e-002) (127, -5.71448309186051270000e-001) (128, -1.74856745481310690000e+000) (129, -4.13191873213053510000e-001) (130, -5.90696982080337720000e-001) (131, -8.92808824378206300000e-001) (132, -7.33615286267716440000e-003) (133, 3.36131202268379950000e-001) (134, 3.48166651075905500000e-001) (135, -5.07720622779412660000e-001) (136, 4.50031498068067300000e-001) (137, -5.80660564355229950000e-001) (138, 1.23300092845134630000e+000) (139, 9.32329949424377110000e-002) (140, 2.03560724552159920000e+000) (141, 3.41968059903597350000e-001) (142, 4.78894720806618430000e-001) (143, -1.65773319217789080000e+000) (144, -9.96717484084967850000e-001) (145, -1.08794270706643400000e+000) (146, -5.59487182898062760000e-001) (147, -9.45460294980843140000e-002) (148, 1.23439504226411660000e-001) (149, 1.49038514740752110000e-001) (150, 4.51275687083034340000e-001) (151, 1.63361036326521150000e+000) (152, -3.02427719149245100000e-001) (153, 1.16825576023408480000e+000) (154, -1.47806444618676250000e+000) (155, 3.01199453508403550000e-001) (156, -4.60982382584851360000e-002) (157, -5.14019005013573670000e-001) (158, -1.30699340241914140000e+000) (159, -1.32259401572964050000e+000) (160, -6.08959703416799720000e-001) (161, -1.43421860810467630000e-002) (162, 9.11775231002724670000e-002) (163, 1.26925477302165610000e-001) (164, 7.41178593282629250000e-002) (165, 3.03493085876329390000e-001) (166, 2.81096705477964000000e-001) (167, 8.35171803547046570000e-001) (168, 6.69811886281274530000e-001) (169, 2.13739129061278810000e+000) (170, 1.89481863541048100000e-001) (171, 9.93138006718449620000e-002) (172, -1.46247446025303710000e-002) (173, 3.32909189197499570000e-001) (174, -4.14870762382083480000e-001) (175, -2.29889756408332040000e-002) (176, 3.24005757891359380000e-001) (177, 2.86823093104367930000e-001) (178, 1.74722108873518470000e-001) (179, 8.96329962781515360000e-002) (180, 2.19651508841506880000e+000) (181, 2.53150238743373190000e+000) (182, 8.25014624809711330000e-001) (183, 1.00835948699144140000e+000) (184, 2.42685822717457670000e+000) (185, 2.43508129003396780000e+000) (186, 1.16014195229359030000e+000) (187, 3.12568546131373470000e-002) (188, 9.18998100779717110000e-001) (189, -3.41963907833669370000e-001) (190, -4.74978844072372060000e-002) (191, 7.52996429150750710000e-002) (192, 1.98428163914163960000e-001) (193, 2.50906192039707760000e-001) (194, 1.02078064822857250000e-001) (195, 1.15644853975454050000e+000) (196, 1.53186410844687180000e+000) (197, 1.32348103123230150000e+000) (198, 1.56071664097195110000e+000) (199, 2.59554298865372650000e+000) (200, 1.50920126832613020000e+000) (201, 2.42322829179884410000e+000) (202, 1.32590188306322340000e+000) (203, 5.22378446738559040000e-001) (204, -2.77481741157712370000e-002) (205, 5.50472184113156570000e-002) (206, 2.26015371708885830000e-001) (207, 2.09304628919896040000e-001) (208, 1.73989686987605450000e-001) (209, 1.85275087546375420000e-001) (210, 7.20619793142560970000e-001) (211, 1.36724852879836380000e+000) (212, 1.36163557667231830000e+000) (213, 2.11281532403750160000e+000) (214, 3.15561754146189300000e+000) (215, 4.19689955873818740000e+000) (216, 3.24068916428456340000e+000) (217, 1.20068093652810660000e+000) (218, 1.18917785572905580000e-001) (219, 1.27003795059110300000e-001) (220, 2.38784816035823600000e-001) (221, 1.04434021889200670000e-001) (222, 2.48440371690429730000e-001) (223, 2.43142520048955870000e-001) (224, 6.78617557193204460000e-002) (225, 2.00369081911820430000e-001) (0, -2.33491081720424100000e+000) (1, -5.41008637506975480000e-001) (2, -3.81152431551076750000e-001) (3, -1.07653187075575560000e+000) (4, 8.06264528094917550000e-001) (5, 9.59916554641163320000e-001) (6, 5.81455479964315570000e-001) (7, 1.63556918042683910000e+000) (8, -9.73884086371662900000e-001) (9, 5.97586256630409100000e-001) (10, 2.87690393384806840000e-001) (11, 5.30130786926549250000e-001) (12, 4.50185245381557520000e-001) (13, 5.29234410808536390000e-001) (14, 5.29069615884205980000e-001) (15, 